3263 100
de -0.49068952 -0.41598612 0.111082956 -0.2739287 -0.1313291 -0.023272434 -0.42833373 0.45062196 0.36162406 -0.3499508 0.82107425 -0.6875761 -0.32107294 0.384764 -0.673491 0.0719186 0.16643177 -0.16684318 -0.4868285 -0.8581706 1.6502846 -0.056561552 0.4007654 -0.07435113 0.68074846 0.20232981 0.24894191 -0.12023947 -0.30152997 -0.8624606 -0.5746577 0.21282847 1.252997 -0.87841225 0.48958224 0.38634473 0.9037004 -0.8611892 -0.7490212 0.4573014 -1.1799694 0.057468902 -1.4621352 -0.5648303 -0.13113204 -0.80670965 -1.114625 0.5718845 -0.63247114 1.0717754 -0.16210611 0.5967571 -0.40950143 0.5214898 0.44882908 -1.21428 0.48031637 -1.7249005 0.14362845 1.3307408 -0.979885 0.5515982 -1.7682993 -0.100609966 0.2609861 -0.15912622 0.34313902 0.7387565 -0.08281155 0.7244477 0.039868362 0.61507845 -0.1574636 -0.7155135 0.14175153 -0.55516803 2.018576 -0.3706864 0.50188136 -0.7702513 -0.7183986 0.5552995 0.5474859 0.3457119 -0.038577136 0.109528214 0.31121564 -0.8769957 0.3264088 0.3481017 -0.20924126 0.08025669 1.076732 -0.3980637 0.6863975 -0.04244392 -0.9937764 -0.37183398 -0.19953327 1.887685
que -0.5719124 -0.50454086 0.98632455 0.2777397 0.5020705 -0.74061763 -0.5565492 0.42703056 -0.80524045 -0.57610846 -0.30845705 -0.99582213 1.2737745 1.1100123 0.64391184 -0.02774976 0.018785907 0.2544382 0.1683918 0.25991905 -0.028369922 -0.026724463 0.43710068 -0.9962343 -0.0054994663 0.6476515 -0.5667091 1.0071979 0.71178865 0.29475534 0.32010785 0.16475002 0.79299885 -1.1981875 0.96247774 1.094636 -0.20143731 0.9051872 -0.10672273 0.5833159 0.52879965 0.28025934 -1.187541 -0.16621508 -0.09508475 0.23929462 0.5398422 -0.4551535 -0.44354984 0.2191834 -0.017219044 -0.70381397 0.36484146 0.8600656 -0.19432965 0.31333676 -0.103043534 0.06680457 0.28899658 0.34811437 0.42183608 -0.57064855 -0.80392456 -0.5142338 0.5149087 0.38572094 0.9705629 -0.9737378 -0.015169445 1.5079608 -0.80383545 -0.14635251 0.9535996 0.3702567 0.56381094 0.41782972 -0.36975047 -0.7558411 0.5583952 0.33392438 -1.1618298 -0.06467645 -0.19785675 -0.1693743 0.49995837 -0.93112123 0.47174945 -0.73843694 0.70849144 -0.8215831 0.18485232 0.18453786 -0.20500009 -1.125797 0.3240563 -0.71271163 0.77433014 -0.45238268 -0.35915625 0.2796643
a 1.1206038 0.28301468 0.29342884 -0.61152124 1.2107823 0.58245116 -1.2435629 0.39773652 -0.83238363 0.31948557 0.06812769 0.18342003 1.1765246 -0.19695748 0.20947403 -1.0255803 0.60757107 0.7199764 -1.1702924 -1.277507 -0.09125533 -0.2590392 -0.2538055 -1.0749083 0.45422104 0.7831012 1.8986512 0.5761377 0.011936919 0.222977 0.39526674 -0.65138686 0.12660825 -0.4934174 -0.14971003 -0.69928676 0.50540364 -0.99546224 0.173026 -0.47823712 0.010185269 0.2449517 -0.6646289 -0.2656488 -1.0870624 -0.7028113 -0.42582834 0.43761373 -0.91922367 -1.1787909 -0.5483888 -1.0144625 -1.1806629 -0.31233838 -0.7587957 -0.35622737 -0.83378243 -0.18253815 -0.7749483 -0.64237493 0.2738434 -0.11614659 1.4184709 0.95030665 -0.6200502 1.2343118 1.4022348 -0.4471295 -0.9187446 0.08059773 0.5158144 0.45997286 0.5718722 -0.88819295 -0.39203802 0.07959837 0.51114166 0.06833878 -0.34182072 0.29425782 0.13082878 -0.4861334 -0.8581662 0.89998364 -1.1589115 0.7080472 -0.8729377 -0.6354615 0.80131406 -0.37816736 -0.6347964 0.29886335 1.4216863 -0.6052224 -1.1721278 0.75962645 0.095462404 0.33054698 1.1601524 -1.1955811
o -0.70212615 1.2699802 -0.39893252 0.7842683 0.14821135 -1.6211132 0.9481763 -0.37646767 0.22308764 -1.0317487 1.3002949 0.17826007 0.15855919 -0.14263016 1.3356982 0.56149304 2.08363 -0.8367875 -0.7620664 -0.68996096 -0.1695986 0.31363386 0.33727545 0.4981454 -0.35766542 0.009424108 -0.75368166 -0.34724554 0.17115314 0.8543193 1.4155378 -0.20466812 -0.7670898 -0.3308233 -0.22179422 0.983058 -0.14183065 -1.3362081 -0.49203104 0.39631468 0.8627251 0.20304896 0.41848487 0.40247068 0.6492836 -0.0018176066 -0.43240777 0.8744336 0.47599554 0.19359858 -0.1144314 0.8966754 -1.2250195 -0.7571078 -1.0247831 1.4699311 0.48667306 0.38617167 1.3526762 0.56626654 0.04899847 1.0689046 1.1170292 1.1528779 -0.050975926 -0.42594174 0.02232626 0.27756974 -0.5610114 -1.3369673 0.75981325 -0.3456616 0.55871886 0.45582074 -0.1656435 -0.33692086 -0.65255773 0.32736814 0.15016824 -0.738201 0.1526412 0.41410917 1.4648983 0.7590037 0.07808731 1.0904121 0.1623241 -0.049604487 0.551591 -0.5887226 -1.0358678 1.0733137 -0.7947501 0.16488431 0.766086 -0.6925024 -0.20584866 -0.529141 0.06673235 0.39602613
e -1.3321922 0.28594783 -0.6375398 -0.66542035 -0.37597266 0.07657357 -0.22942786 0.43136346 -0.31460583 0.84804714 -0.09341743 0.022364784 -1.045351 -0.3747715 -0.07275865 -0.0035226464 0.014453119 -0.50388986 -0.26840857 -1.2514743 0.090296835 0.017529966 1.1767266 -0.22357543 -0.5096412 -0.64662886 -0.29045543 0.013827165 -0.0023136972 -0.21226762 0.43719894 0.044039182 0.25690573 0.38323438 0.34233218 -0.3493637 -0.10717052 -0.099570036 -0.1911381 -0.59503406 -0.44153875 -0.48310325 -0.7653007 0.7153546 0.57682335 0.22526316 -0.32352534 0.65212893 0.18514831 -0.20432737 -0.35075963 0.3548914 0.42835122 -0.27687857 -0.86415154 -1.3388407 -0.35226053 0.038676698 0.40022323 -0.58741546 0.13493149 -0.4090605 0.48321366 -0.31371865 -0.21937682 0.14159371 0.14597279 0.6965864 -0.50326735 0.31693476 -0.61830735 0.71008265 -0.07764096 0.047688123 0.10613359 -0.27193308 0.5414923 0.061153557 0.20753945 -0.43249622 -0.7045638 -0.609271 0.3806425 0.11830548 0.24526231 -0.4409211 0.51368153 0.004993622 -0.5665143 -0.35909256 -0.11020427 -0.07941999 0.1215007 0.045125034 0.32896093 -0.03216281 0.49962306 0.19187535 -0.13000701 0.95361674
harry -1.1948503 0.5976656 -0.9032851 -0.2854847 -0.7769978 -0.43957037 0.4376164 0.1842978 -0.53176254 -0.4939241 1.1043504 -0.16898999 0.5906848 0.013561407 0.14050926 -0.9531713 -0.5417096 -0.50650513 0.01771543 -0.62825686 -0.82716715 -0.89747435 -0.29328468 0.52005 -0.5636455 -0.68027145 0.6616418 0.5104533 0.141646 0.22788149 1.1945438 -0.6501786 0.13731627 -1.016963 0.18389912 -0.094650604 0.5440913 0.20839052 0.20935677 -0.15605974 0.11757034 -0.25143686 -0.26346692 -0.8555556 -0.37174225 -0.27835545 0.058731835 0.7649218 -0.31780192 -0.29033542 0.26043957 0.09707903 0.8397127 0.55517983 -0.5276218 0.54437685 0.57878083 -0.5851725 -0.7184233 -0.641911 0.76292694 -0.011352304 2.0449417 -1.1341733 -0.2984042 0.79313594 0.116623886 0.65545 -0.8409757 -0.112975165 -0.25668904 0.14449894 0.78808874 1.2919205 0.6300149 -0.003675387 -1.0971777 -0.004332495 -0.775495 0.22745529 -0.24972229 -0.7603807 0.6726808 -0.6421041 -0.5155589 -0.83228457 0.34735164 0.44974905 -0.60679716 0.07560169 0.75587606 1.5261161 -0.22849281 0.13154392 0.5584663 0.3736063 0.49410635 -0.24754389 1.1277899 -0.4290161
se 0.1724777 -0.18778226 0.11163969 0.3336554 0.63906354 -0.29830363 0.80542916 -0.30714506 -0.49116966 -0.88514805 0.7859053 -0.16218106 0.49808684 1.496632 0.22875245 0.294232 0.1290946 0.33339193 1.401348 -0.77884257 -0.14981453 -0.8703984 1.5419004 -0.47549632 -0.27356926 -0.31738034 0.3319525 0.2142562 -0.35637876 -0.03255489 1.6022606 -0.5925026 0.41524145 0.02238145 -0.78755224 0.72489107 -0.05128153 -0.07466419 -0.2649006 -0.23653616 0.05052018 -1.1355563 -0.008190029 -0.47457 -0.0747738 0.59153634 -0.72875637 -0.7796229 -0.67354757 -0.80290663 -0.15864044 0.17055742 0.35639185 -0.5399941 -0.79363847 -0.799178 0.41632017 -0.984492 -0.29598108 -0.16745792 -0.42007208 -0.048957705 1.6597449 -0.5016614 -1.0542519 0.993353 -0.42052683 -0.083736226 -0.23989637 0.15998518 -0.703705 -0.22076946 0.07012173 1.433986 -0.24225466 -0.23778158 -0.1715665 -0.008660873 -0.6397907 0.7518738 0.31013831 -0.44703948 -0.062456008 0.17921217 -0.40443528 -0.7362715 0.6092054 -0.25059378 0.22562392 -0.1770668 -0.17556603 -0.36262947 -0.43039423 -0.21912917 -0.8189905 -0.17011818 1.8958111 -0.7030895 0.7643988 -1.2105007
não 0.26808807 -0.79912835 0.49134493 0.5700375 0.44417533 -0.9972953 0.54223704 0.13337208 -1.4256546 -0.42235282 -0.4310136 -0.46552527 0.9456319 0.5551984 0.7666688 0.47168708 0.35548058 0.17509753 -0.10067643 -0.033435263 0.9261366 0.3851995 -0.7474931 -0.525928 -0.0984254 0.76274586 0.1677099 1.046799 -0.31897083 0.7312304 0.11530579 0.16620205 0.39700067 -0.7667013 0.32939705 0.3307636 0.49055153 0.61366326 0.4266182 1.3654217 1.0718615 0.38043186 0.14027308 -0.29927412 0.7766623 -0.39231947 -0.17697258 -0.50525916 0.6984136 -0.24489306 -0.25019804 -1.1532127 1.3463345 -0.008032409 0.09855064 1.4012582 -0.81776184 0.19316888 -0.89955634 0.30360556 0.46122947 -0.97837895 -1.5201188 -0.6485914 -0.018211475 1.5480021 0.06538003 0.55849016 -0.023150293 0.8750511 0.05250638 -0.24984969 1.5065247 0.5405106 -0.5651999 0.71454453 -0.0045287646 -0.36058378 0.74599576 -0.6816191 -0.97615874 0.031685963 -1.3811818 0.7928919 0.15563986 -0.656971 0.56276155 0.7192558 0.9661739 -0.4616795 0.44180828 -0.63518584 0.103041865 -0.030339345 0.31194875 0.056261115 0.30249366 0.3215407 0.3456565 -1.384173
para -0.23931767 0.5322704 -0.6723826 0.7713943 1.2311721 0.6053348 1.0906185 0.6304863 -0.66801137 0.30787277 0.37895578 -0.0526424 -0.4363301 -0.42176518 0.7671496 0.6213613 -1.2663527 -0.34229478 -1.0097077 -0.6090002 -0.24588525 0.7246598 0.12786101 0.7366878 1.3620361 -0.17685556 0.76223695 -0.7196451 -0.6238048 -0.9209963 0.961188 -1.2111229 0.8078689 -0.1899369 -0.33668807 -0.6107685 -0.4612606 0.09414753 1.5270996 -0.4498025 -0.18130066 0.035853036 -0.32986093 -0.34376264 0.14727356 -0.7242751 0.26813495 -0.1724555 -0.24631917 0.86570174 -0.41470477 0.034977958 -0.022369068 -0.4255718 1.1752656 0.5034099 1.035375 -0.019345807 0.33438748 0.18654811 -0.84877557 -0.029199062 1.0030888 0.46766973 -1.2290627 0.5764482 0.3770466 1.0875024 -0.7510009 1.3068783 -0.9842661 -0.17496207 0.6662455 0.1667325 -0.22231819 -2.0121882 -0.23217829 0.2962311 -1.002558 -0.571962 -0.43436006 -0.8237249 0.5702309 -0.20623197 1.7355548 1.3877097 -0.027343102 -1.44612 0.12808853 0.023206316 -0.8419902 0.98623466 0.180532 -0.051946197 0.55343986 0.90323323 0.74494654 -0.57377654 0.13818565 0.11375036
um -1.2614002 -0.7100853 -1.3449364 -0.12972496 -1.1400319 -1.5686109 0.099547766 0.24009193 -0.3334887 -1.2449577 0.45256534 -0.09730973 -0.3811981 -0.56004435 -0.39409247 1.4636875 1.5897498 -1.2273619 0.72914886 -2.1495566 1.2576647 1.0494455 0.03653107 -0.16719778 -0.13637255 -0.30219594 -1.0149668 0.60933954 -0.7285846 0.45913857 1.644895 1.074026 0.48705688 0.85421324 -0.6702733 1.6057495 0.4772871 0.339288 -1.3398913 0.5347188 0.35737982 0.28707057 -0.21841574 -0.018593516 0.60384524 0.7478183 -1.5399989 0.47143897 1.2152185 1.1940827 -0.10375681 1.7149161 -1.1473567 -0.33777285 0.35667613 -0.68810713 0.35346413 -0.15702623 2.145969 0.876453 0.48834872 0.4824761 1.2290167 0.047679022 -0.9901441 -0.5610642 -0.7162571 -0.22416317 0.60505706 -1.0887866 0.48097172 0.69963723 0.5060368 0.5010741 0.5084234 0.37010613 0.0016471272 -0.5983696 1.0452996 0.44497082 0.7742982 0.14760318 1.2348262 1.4911151 0.5290591 -0.20656292 -1.1147461 0.046597525 1.3405893 1.1085963 -0.8694883 0.7581121 1.0442784 1.5460868 0.91525733 -1.156909 -0.73020506 0.15646055 0.6584057 1.1503252
uma 0.6687634 -0.78075546 0.7024096 -0.68082035 0.115656435 -0.26153883 -0.93383133 1.5790259 -0.76938236 0.35319984 0.5360659 -0.05861823 1.088866 -0.83297515 0.026519727 -0.2589161 -0.15853052 -0.073595725 0.15100972 -2.4093251 0.20698056 -0.08196731 0.28486723 -1.895357 -0.4030489 0.31730846 0.45840043 0.93048 0.10529455 -0.6639467 1.195462 0.54791903 1.8221315 1.1735317 0.6645903 0.6983894 1.160212 -0.31209213 -1.4122571 -0.69438887 0.2521562 0.30417907 -1.2778857 -1.1590462 -0.62269986 -0.6673825 -1.9590328 0.32246923 -0.12198408 -0.70483583 -1.1587831 0.30112684 -0.857015 0.6763848 0.35598385 -1.2099805 -1.8081644 -0.1575862 0.15158993 -0.0057739695 -0.30366609 0.202247 0.29465464 -0.023610746 -0.079428576 1.0329657 0.14550363 -1.025787 0.53077626 -0.14668396 0.06460966 1.3621359 -0.31772295 0.021982124 -0.08561576 0.67686 1.6005236 -0.8873742 0.7364642 1.5240105 0.8554965 -0.017374812 -0.40944612 1.2870754 -0.9500104 0.67373705 -0.99582535 -0.44144464 0.91186625 -0.24368283 0.82670397 0.31344292 0.9330656 0.48752263 -1.0697325 -0.17831784 -0.40246233 -0.18843107 1.2977489 0.4563931
os 0.89024353 0.3921209 0.24094355 1.4124937 0.50589705 0.34485132 -0.13620342 2.070498 0.61816967 -1.2422777 0.5773714 -0.7540252 -1.9291881 0.20972928 -0.30991346 -2.191847 -0.47392246 -1.1734766 -0.44932956 0.09850901 0.1746294 -1.3544302 1.1595086 -1.3824979 -0.12271937 -0.8369388 -0.4016513 0.5446588 -0.46623674 -0.32370865 -0.9114611 -1.1409093 0.09061646 -0.05245514 -0.5402161 -0.16482449 0.13969967 -0.38677046 -0.16701642 0.019870825 0.06178188 -0.47676516 -0.47249693 0.9453622 0.4037384 -0.03546511 2.4421575 0.71743554 1.2281781 1.6054018 0.5057844 -0.5122198 2.2528396 0.8930537 -2.4261866 -0.033008836 -0.044610318 0.60821563 0.6660204 -0.76756483 0.089799516 -0.5372104 0.693922 -0.66980207 -1.0161941 -0.07293405 0.26170272 1.6848323 -0.8172897 0.64582634 0.31761432 1.6873434 -0.32415465 0.9666114 -1.7603406 0.70013505 -0.012046647 1.1101341 -1.212273 -0.24108805 0.24035963 0.53064793 -0.3788954 -0.4913372 0.056506526 -0.513379 0.10224569 -1.6084833 0.6983341 0.8524762 0.5761208 -2.1920025 -1.2921653 0.4542682 0.015340402 0.8710371 -0.7193101 -1.4600953 -2.4013355 -0.31444395
com -0.37647003 -0.39158013 0.10502502 -0.8273328 0.2199644 0.9500545 -0.538586 -0.14435735 -0.5993057 -0.2288511 -0.47043523 -0.3933246 -1.0785407 0.79731405 0.013001751 -0.49398765 0.06718379 0.49730778 -0.0020300602 0.32240462 -0.092468455 0.3412118 0.15438944 0.7676242 0.5627249 1.1836425 0.40664428 0.73935527 0.4676945 0.6868825 -0.9665792 -0.39794764 0.2726078 -0.6738608 -0.0016827335 -1.0068116 -0.49862304 -0.038751446 0.44213742 -0.85084045 -1.4721861 1.3356441 -0.2668146 0.32976815 -1.1879779 -0.6863971 0.33443007 -0.16597256 -0.105368145 0.23501787 0.43044516 0.11916126 -0.101718135 -0.25238758 0.4606162 -0.29756653 -0.080085315 0.15179518 0.09992159 -0.32415667 -0.926395 -0.45185885 -0.37206337 0.7433481 -0.77470845 0.4983992 1.4077047 0.14883806 -1.3475417 0.8841266 0.04434389 0.6543141 0.2528105 -0.082067356 0.18276405 0.2168996 1.8951646 -0.746054 -0.4820773 -0.27643102 -1.5140177 0.16276008 0.36842218 0.87526566 -0.514034 -0.47971213 0.45623544 -0.15901446 -0.91572905 0.29096982 1.0724257 0.24795154 0.5340789 0.38101327 1.5141993 0.55287296 0.03883553 0.54151154 1.4036158 0.60965836
do -1.4898422 1.4716212 -0.6897092 0.8668553 -0.65043354 -0.6391445 0.19586635 -0.9921663 -0.17884885 -0.3474419 0.17780231 0.60941595 -1.4295814 -0.6498799 0.7954171 1.1167282 0.8266667 -0.3364231 -0.55311286 -1.3497429 0.46629047 0.9261661 0.6443224 1.005105 0.90219605 0.6485654 -0.99951774 -1.6151979 -0.21937189 1.1626626 1.1435065 0.22217421 1.7762791 -0.5673728 0.31724635 -0.23710892 -1.7365694 -1.0282372 -0.01237981 -0.54337525 0.39672157 0.39526734 0.5272709 1.0937219 0.3692958 -0.8694664 -0.60370314 0.2594079 0.9008105 0.2551397 -0.7239197 1.0048342 -1.9771285 -0.38244638 -0.15450321 0.9000989 0.9997281 -0.31110632 0.8075145 0.84494525 -0.54648966 1.7527776 0.89503896 0.5097653 0.1203518 0.23344322 0.24272671 0.72270423 0.9109085 -0.4100876 0.5786224 -0.20088558 -0.037103724 0.53531426 0.6150727 -0.5132968 0.30530345 0.53033125 1.6088258 -0.43480045 -0.27786013 0.63833094 2.2762573 0.47673267 1.0196449 0.95594585 0.40425962 0.29458436 1.1828475 0.21951425 0.033885688 1.7196686 -0.83025146 0.0025959096 0.21015818 -0.4612415 0.020831762 -0.7548867 -1.0047859 2.2313364
em 0.70613265 0.8638576 0.97627425 -0.7033638 -0.22860445 0.14544009 -0.18124895 1.3913676 1.2915391 -0.57776916 1.6950241 -1.1192528 -0.8931774 -0.91103685 -0.6970622 0.17698503 -0.21380585 -1.1733688 -0.5525191 -0.6782226 0.20364596 0.42164573 1.1857368 0.96109927 -0.89241815 -0.3130383 0.76614565 -0.0438372 1.3014665 -1.165269 -0.5357331 -1.1238853 1.1037512 0.01383747 -0.8013376 -1.4529465 1.5580453 -0.6094661 0.43570906 0.8531814 0.54103136 0.039644435 0.5309428 -0.5248145 0.7276612 0.11642499 -0.92029136 -0.01259587 1.2456125 0.5625879 -0.41731083 1.1948645 0.16765948 0.025601668 -0.15653835 -0.12903737 1.0449771 1.0500035 -1.4851176 0.4752249 -1.1659966 -0.4210469 -0.18049318 0.9845565 1.0557317 0.57591534 0.8443401 0.31202766 -0.59380984 1.9928969 -0.052210912 -1.3364732 0.14450908 -0.9003908 0.14832292 -2.0067618 1.6028569 -0.4326765 -0.04663887 -0.67738503 -1.1064901 -0.9041441 -0.31369263 0.28160074 -0.71542215 0.2396674 0.83213764 0.6439854 -1.003433 0.088058665 1.2011247 -0.27562428 0.60915273 0.9421633 -0.067428425 -0.49049821 -0.24205796 0.8448034 -0.06415103 1.062117
ele -0.43554708 0.94851965 -0.46443745 0.85662174 -0.054735098 -1.0650028 -0.21308099 0.6378474 0.28911835 -0.6110918 0.5661449 -0.2034006 0.5470128 0.35271952 0.5134341 0.18512549 -0.3931848 -0.14730342 0.4016869 -0.39376128 -0.052546203 -0.46181133 -0.5745435 0.6544265 -0.47057238 -0.52857924 -0.19857113 1.0774926 0.021709517 -0.1681523 0.91857135 -0.30540308 -0.20860389 -0.634804 -0.24315889 0.9103517 0.9082954 0.034990657 -0.55033845 0.25553155 0.3674492 -0.0015713227 -1.0878683 -0.53798026 -0.23477292 -0.32808048 -0.04151062 0.13689543 -0.009332376 -0.9914667 0.073349856 -0.3005586 -0.3088608 0.8522897 0.0810457 0.59737355 0.87676924 -0.68148357 -0.25701237 0.66727924 0.6404016 -0.032703917 1.5069742 0.07185209 0.08594847 0.031537164 -0.23661003 0.27285892 -0.4967215 1.123499 -0.48669994 -0.10631373 -0.16036363 0.608991 0.5788696 0.16451286 -0.756923 0.09160077 -0.6100226 -0.4764196 -0.4720383 -0.15858239 0.41111028 0.24872647 -1.2268811 -0.60079634 0.090845436 -0.09487955 -0.032537285 0.54311186 0.19596112 0.6649994 -0.37541288 0.03657978 -0.11584665 -0.43452165 0.22013423 -0.117823705 0.7716271 0.10582421
da 0.71973807 -1.2725914 -0.16993918 0.5732403 0.39459962 0.9190214 -1.0865126 -0.09071766 -0.32590467 0.89226145 -0.95292515 0.28615275 -0.58917844 0.21782008 -0.46955216 1.3736259 -1.2383758 1.2223835 -0.5818223 -1.9077036 -0.000946993 0.2154265 1.3346268 0.78135896 1.6999651 1.7679386 2.1101835 -0.5202372 -0.6669656 -0.42629406 1.4488066 0.33359116 1.0781507 -0.65635645 0.70745003 -1.0727515 -0.8674356 -0.629866 -0.9220223 -1.4553381 0.29437214 -0.5062598 -1.0250901 0.33539203 -0.4679408 -0.73725075 -1.0146818 0.55215544 -0.61028016 0.18750708 -0.5555247 -0.5896719 -0.75837207 0.4037079 -0.010174131 0.12659854 -0.3850627 -0.78991824 -1.1002288 0.23387834 -0.17060862 0.776957 1.7737172 1.6596458 -1.0742673 1.4722334 1.2261456 0.8612175 0.5359237 0.920312 1.6963811 2.1581545 -0.30174598 -0.80656046 -0.18148965 -1.3854042 2.5783153 0.73120314 1.6532694 0.0969626 0.2302307 -1.616598 -0.71267194 -0.71099216 -0.9717466 1.9528847 -0.66768026 -0.70205164 0.07544351 -0.27602625 -0.36112854 1.2491269 1.2043188 -0.07420431 -1.3368983 1.2646387 -0.31783962 -1.1104674 -0.6797874 1.148915
disse 0.3898329 -0.8065099 0.41237387 -1.3284194 1.1230258 -0.7019739 1.4863322 0.2876648 0.023833027 -0.29841125 -1.1791574 0.1539122 0.6939697 -0.7075505 1.1149698 -0.8780035 0.02569319 1.0611675 1.111651 -1.3494024 1.3112034 -0.09815871 -1.9332036 -0.75710213 -0.7339725 0.4413654 0.4550179 -1.1306467 -0.61944765 0.22096013 0.3559799 0.17206264 -2.3453965 -0.95883614 0.41546598 0.7359244 -0.8674107 0.917088 -0.56552756 -0.6084849 0.7365511 -0.61631805 0.26872152 0.8414552 1.801776 -0.25866485 -0.6717517 -0.26596755 0.14665745 -0.37252298 1.473281 0.2563715 0.9453699 -1.1190279 0.9888549 -1.110014 -0.7481265 1.1706705 0.15439087 0.46009174 -0.05339904 -1.4363309 -0.27643067 0.08508219 0.72326684 -0.25185356 0.74169225 0.09496352 0.57201827 -0.82499456 -0.86666024 0.3984198 0.5792889 0.099369146 0.35326543 0.394764 1.1506308 1.556508 0.059584327 0.37933823 -1.1821072 1.100189 0.23553777 0.9466523 -0.071949914 0.13522708 0.9464804 0.036321905 0.50599504 -0.97481686 0.7889749 0.48783523 0.7194957 -0.9706742 1.7918897 1.5605873 -0.2927749 0.47849625 -0.1344051 -0.09448201
é 2.0150194 -1.3437443 0.16920714 -0.16488665 0.8093287 -1.2592586 0.70919114 -0.8324634 -0.06807582 -1.0807266 -0.38343093 -0.5099095 0.31597266 1.5406739 1.7563444 0.6624792 -0.5761006 1.6328326 1.2550098 0.4978139 0.7828082 0.11903491 -0.45537156 -0.21087396 1.096415 0.61808634 -0.77026594 0.5902011 1.1161581 0.38756275 0.77185297 1.1510863 -0.8228009 -2.220383 -0.45118213 0.4415074 0.28646934 0.0018723621 0.2894499 -1.3451372 -0.4037711 0.06786957 0.23113734 1.0188264 0.52069414 0.6218551 0.087644525 -0.40389118 2.5926611 -0.29090604 0.55112314 -0.08938237 0.58256626 -0.60241735 1.4194757 1.4192957 -0.17834114 0.897245 -0.42206296 -0.12344119 -1.0640615 1.4113122 -0.15481426 0.9399421 0.10138932 1.0023721 1.0894634 -0.19283408 -0.45774558 -0.14967057 -1.1758239 -0.56139153 1.3739573 -0.31439665 1.612187 0.45267737 -0.13342977 0.98206127 -1.4350947 -0.011950464 -0.6930327 0.24816348 0.16703208 0.7794037 -0.20712282 0.1833591 0.081935376 -0.3150021 0.18470882 -0.24493118 1.9876052 1.005729 0.14259195 0.87132746 1.1784202 0.36710593 0.27716354 0.06307475 0.07577065 -0.29411083
no -0.36237854 1.9295968 -0.40004843 0.8374648 -0.45857364 1.1476669 1.1660151 -0.3413005 -0.23156591 -0.33929875 0.33920938 -0.09051263 -0.9235995 0.09519217 -0.40826836 0.37130886 2.0194738 -1.5410943 -1.3293955 -1.0165868 -0.21435834 2.29072 0.03999468 0.8642138 -0.35112646 -0.32083994 0.24048935 -0.6951081 0.832949 1.31102 1.013018 -1.153884 1.3262825 -0.0834633 -1.0461975 0.38216785 -1.7707065 -1.3372864 0.013510564 -0.25462034 1.0894431 1.2309724 1.0343461 1.1029497 0.5261871 0.05187245 -0.34474143 -0.24481554 1.2329764 1.3995273 -1.3526862 0.004108432 -3.0854237 -1.2750071 -0.4989828 2.2895024 0.42628467 0.4650868 1.2165114 0.59106797 0.27552563 -0.5230598 0.5419384 0.79022944 -0.33519667 0.41998252 0.499199 -0.6348062 -0.16062933 -0.2207964 0.11292337 -0.4379975 -0.85412633 -1.5301076 0.17567617 -0.01790472 0.46803927 0.54969084 -0.2149196 -0.0008605433 -1.9185616 -0.31441593 2.0775223 0.65560216 0.66731834 0.5112708 -0.39854607 -0.25045317 -0.038462188 -0.10153253 0.6505426 0.7342506 -0.75265676 0.7792079 -1.3816789 -0.94403267 0.18104194 0.7662065 -0.27187884 2.6763887
rony -0.12623833 -0.017199576 -0.69304323 0.20590733 0.2605643 0.31053695 -0.18897504 0.786435 -0.24034272 0.0342601 0.63554543 -0.5428177 0.19946155 0.88906276 0.74256 -0.07555768 -1.0900568 0.94036055 -0.2522795 -0.2747542 -2.4635398 0.95652777 -0.4301829 1.1624346 -0.5880616 -0.22563292 0.25001976 0.14923434 -1.4176968 -0.3748545 0.16535616 -1.0172771 0.41235965 -0.031191079 -0.626638 0.7179024 0.32211438 1.1079696 0.38195252 0.753147 0.31435665 -0.20519073 -1.3167576 -0.70005363 0.5390627 -0.0047607436 -0.16441193 -0.10269396 0.11866205 0.0051582204 0.32491952 -0.03911444 0.59446007 0.17060228 -0.71760947 0.5846077 0.8212009 -0.554455 -1.0575306 -1.1885593 -0.2314559 0.015480713 1.3887237 -0.6812488 -1.7711384 0.90789324 0.15611386 -0.08861347 -0.7037602 0.609927 0.4321867 -0.26696602 -0.49020883 1.4975076 0.755857 1.2867161 -0.44362488 0.12350501 -1.1039516 0.060681 -0.86449635 -0.18461409 -0.17673571 0.2771225 -1.0102271 0.6664221 0.66529596 0.26597947 -0.49304882 0.7969974 0.47423872 1.2662983 0.5890005 0.7885315 1.1641625 0.18571633 0.6251307 0.52247113 -0.80570436 -0.77653134
na 1.643634 -0.8082808 0.8391114 -0.36924076 -0.2568357 1.7710176 -0.65774494 0.34501544 0.25600287 1.4023545 0.47191435 -0.2415539 1.385072 0.08753257 -0.8156978 -0.55775523 -0.52820957 0.58269024 -0.42090937 -1.3230648 -0.7093382 -0.08113621 0.6273897 -0.43188667 0.85270655 0.75574106 1.574269 0.8419704 0.42935747 -0.0030510088 1.3798188 -1.6003972 0.38250008 -0.6772311 0.5568641 -1.4256169 -0.22953548 -1.2543635 -0.11201597 -0.9316312 0.9128356 -1.6002681 0.34552893 -0.3991513 -0.40700656 -0.5100339 -0.7084751 -0.14848992 -0.90456736 0.042763114 -1.1842157 0.13058095 -0.6167803 0.33581778 -0.11543317 -0.21006529 -0.9349466 -0.45002374 -1.9017601 -0.32476893 -0.28449202 0.46820194 1.0589659 2.9599876 0.23733473 1.1145746 0.9693388 0.41110376 -0.4319391 0.8537097 0.7499057 1.9249183 0.13254042 -1.5496482 0.16889337 -0.72832566 1.4110337 -0.6088788 0.7519485 0.6578724 -0.35025597 -2.1792085 -1.5301559 0.15777774 -1.3998419 1.082874 -0.5532135 -0.17477354 -1.019668 0.11278881 1.1717815 0.42427436 1.5106541 -0.06836672 -1.695595 0.47691035 -0.29293236 1.1161816 0.45816046 0.17907612
você 0.5443099 0.61784863 -0.25410417 0.60016596 0.12948936 -2.2615812 0.47256848 0.69496185 -0.527069 -0.5710614 -0.90309894 -0.9714079 1.080116 0.63293856 1.8091317 0.31107262 -0.79985005 0.69702655 1.8138653 0.07587056 0.394969 0.33651787 -1.13043 0.7163294 0.6274976 1.0779597 -0.9287746 1.2014109 -0.25067398 -0.0022187035 -0.034821965 0.26106995 -1.3384284 -2.137103 0.26408333 1.3891163 1.4402142 0.39147505 -0.6719565 0.042281527 0.5470105 -1.4215446 -1.3673973 -0.47966662 0.8328756 -0.3273917 0.58765185 -0.40471366 0.6000272 -1.9745654 0.51424074 -0.9715745 0.41206318 0.6684731 0.61611456 0.78037345 -0.23328146 -0.8163836 -0.9817326 0.65947634 0.09310762 0.24498609 0.26889077 0.14875524 0.7417356 0.45546588 0.24601845 -0.49080935 -0.6792432 0.81946075 -1.9785045 0.00048624253 0.858698 -0.3639326 0.4952204 0.98282284 -1.4398688 0.80881965 -0.8392753 -0.5002337 -0.50546557 -0.34243977 -0.43153974 0.43370712 -1.2319435 0.3811834 0.7925766 -0.42139104 0.84357935 -0.18439628 1.3151985 0.11421419 -0.7585228 0.54260546 -0.11126972 -0.90053916 0.5346626 0.19862404 0.3727983 0.24893302
mas -0.8996601 -0.3509209 -0.37684745 0.027959388 0.4880983 -0.6298786 -0.5078657 0.32804295 0.31285432 -0.047722485 -0.007394022 0.04219013 1.0365238 0.28863907 0.7356613 0.16512772 0.25639793 -0.43734106 0.17655446 -0.33274978 0.8703852 -0.2937988 -0.11586743 -0.9251592 -0.59669197 -0.26897523 -0.11015111 0.5755452 0.404044 -0.13709852 0.85145545 0.27910694 -0.3841902 -0.16710886 0.32086107 0.53464264 -0.033229522 0.8343344 0.37376723 0.46547356 0.34544405 0.2061009 -0.8597486 0.09201514 0.2637226 -0.14966309 0.021730071 0.22606616 -0.5414678 -0.5448319 0.23520294 -0.6182541 0.9824043 0.40105972 -0.23333333 0.43925107 -0.35656768 0.707968 -0.25141633 -0.11466824 0.04481235 -0.9041147 -0.08009288 -0.41797844 0.46541107 0.35334435 0.5009995 0.13852246 0.33275276 1.0159552 -0.22690777 0.12208386 0.5357921 0.14239089 0.694758 -0.053843394 0.49191943 -0.18492176 0.658648 -0.3663495 -1.4402463 -0.5449071 -0.54879606 0.69207454 -0.581053 -0.8426769 0.30270818 -0.20228046 0.25399083 -0.50669026 0.47889712 -0.16305204 0.002703779 -1.0284978 0.0062475307 0.68784976 1.3152299 -0.13078186 0.29937458 -0.017886925
por 0.33113265 -0.12051063 0.3775582 -0.6987157 -1.1730099 -0.9131717 0.8362768 0.40089184 -0.99327195 -0.8318925 -0.26689398 0.15327618 -1.0043199 0.81918305 -0.23386501 0.95839834 -0.29099643 1.0446205 -1.7072834 -1.5496926 -0.6124504 0.24277614 0.3693905 1.1368113 -0.08541083 -0.83476824 -0.37712237 -1.7140131 -0.2258573 -0.63866395 0.4682635 -0.13371938 0.5303529 0.20535213 -0.39062086 -0.4666458 -0.013620208 -1.4102772 1.085416 -0.36413595 -1.0247006 0.56687033 1.861238 0.524888 0.6898716 -0.43831652 1.1374267 -1.1036081 0.74837613 0.36456874 1.1025276 0.9921699 0.29672632 -0.086445816 1.7337883 0.21899852 1.1500202 1.8167875 0.18335289 -0.2840206 -0.48849058 -0.13600081 -0.9416223 1.1916007 0.61999756 0.07040941 -0.33453247 -1.1418062 -0.8203708 1.9552484 -1.1562293 -1.3258947 -0.21163914 0.036926076 1.134661 -0.6281879 0.93128246 1.1086383 -0.22245562 -0.6069477 0.3491284 -1.3630718 -0.5356898 0.83360904 0.80752134 0.3476748 0.34511265 -0.5691751 0.40521455 1.4981182 0.5358005 -0.79290885 0.70108366 -0.12071948 0.5469731 -1.3658867 0.22914544 -0.9448194 0.7155256 -0.24493231
as 0.3775254 1.8950325 0.34266356 -0.7886103 -0.1393973 -0.47636017 -0.9089834 1.2013149 1.3097497 0.17414337 -0.214998 0.3596371 -1.1024259 -0.79102325 -2.1583807 -0.21453707 2.312577 -1.0456406 -2.054021 -0.5047181 -0.47314626 -0.037653852 -0.19486074 -2.2167277 1.0206435 -1.2619238 -2.0239441 -1.3430231 -0.5667205 -0.62078226 -0.52118504 0.24846603 -0.8956114 -0.38643324 -1.668483 2.0889618 1.1170177 -1.7413222 0.07606205 -1.012045 -0.6659468 -1.3739096 -0.058169108 0.16611055 -0.65898556 -1.0694517 1.0815452 -1.0912668 -1.9484051 0.5959463 1.3256257 -1.467844 -1.9219817 0.2301437 -2.8655014 -0.6946908 0.5369116 -0.24818206 -2.1246395 -0.76382977 1.1672021 -0.52595705 -0.029796785 -1.2387176 1.0417135 0.78416693 0.25808832 -0.6331345 -2.085988 -0.8983259 -1.8911139 -1.0316514 -1.0660297 0.16288038 -0.47886693 -0.8002243 -1.2215917 -0.48340175 -0.24112594 0.77198696 0.84190154 0.03639305 -0.74461776 0.44618556 0.66695523 -0.3886967 1.8627839 0.9307211 -1.1572803 1.6588117 -1.6150937 -1.6385126 -0.043111634 -0.27398834 1.4444509 -0.09037045 -0.90147483 0.29078266 -0.97587633 0.5047601
mais 0.21065298 -0.1716132 -0.53532916 0.53444785 0.12577176 0.43400398 0.22456135 0.33394372 -0.14330064 0.6730804 -0.57456756 -0.4780242 1.433914 -0.43516782 -0.50149065 0.11667213 -0.06502393 -0.96297884 0.4533814 -1.2442691 0.42678687 -0.26775935 0.1854289 -0.49311128 -1.5915536 -1.4979241 -0.669751 -1.0522927 1.5053105 1.230804 0.82281137 0.69863445 0.3914322 0.72870415 -0.34026787 0.90288156 -0.97847575 0.05631431 0.6529635 0.08647555 2.1951253 0.62523836 -0.1767479 -0.92370236 0.95320237 0.94489974 0.933438 0.048203398 1.6288881 -0.16138498 0.4481234 0.2604216 1.3225307 -0.0754074 -0.3230868 0.3632072 -0.381975 -0.39862323 -1.6146547 0.32709727 0.0878189 -0.9912886 0.03638342 -0.24835597 0.19550458 0.23338105 1.0191778 -0.052940503 -0.40045696 1.4608896 0.42595798 -0.94530255 0.59245294 0.25446156 0.5938625 -0.50984645 0.5709941 -0.5459071 0.8709419 0.12314317 -1.4983581 1.1081002 -0.030269235 0.7785957 0.40257534 -0.27711225 -0.9448307 0.29845607 1.1754645 0.46451655 1.3367739 -1.1119777 -0.18497989 -1.885617 -0.56266195 -0.9908627 -0.64196557 -0.2188179 -0.08127988 0.028680773
estava 0.82972544 -0.6654862 0.12276258 0.19895878 0.21890882 -0.0043616346 -0.20934387 -1.3882006 0.8965944 -0.19245543 0.579794 1.118161 0.059816316 0.88397473 -0.86741847 -0.26925004 1.4102424 0.6156501 0.18706092 0.109624766 -0.3606147 0.75719607 1.0916271 -1.3246632 0.23033728 -0.41098493 -0.80571645 0.17219207 -1.2304797 -0.2349594 1.152429 -1.0317625 1.4141798 -0.92071426 -0.36860666 -0.3891189 -1.3608483 -0.46340126 -1.2932396 -0.23178697 -0.12630416 -0.27874377 -0.17434481 1.449085 -0.15414317 -0.60388446 -0.11583124 -0.26448634 0.34947076 0.1916455 0.28586447 0.2456423 0.69029665 -0.1540262 0.6244202 0.41826448 0.3263995 0.09694556 -0.4712462 -1.0215571 -0.6312799 0.87464845 0.91002315 0.3984077 0.73812336 1.39118 -0.30369082 -0.75973624 -0.14551343 -0.7790407 -0.70267236 1.7267212 0.15186392 -1.4576545 1.472503 -0.021623442 -0.84129846 1.0245123 -0.19006076 0.3621375 -0.091347784 0.89094377 0.9169612 0.72054523 -0.10250229 -0.6174122 0.8473777 0.9053616 1.0672861 0.70375216 -0.022710973 0.74973315 -0.8146693 -1.5600753 0.6307383 0.8781017 0.012251523 0.93698585 -1.1832263 0.37878904
como -0.50575984 -0.39721876 0.28027856 0.9249426 -0.113813765 -0.013698809 0.9721536 1.0105231 -0.6647763 -0.33077323 -0.0776404 -0.5428909 0.43875787 1.512106 0.20397034 0.64608717 0.90062225 -0.16769637 0.022763748 -0.09700537 1.0608175 -0.070560105 0.13757141 0.23133785 0.14838451 -0.35202783 -0.38508403 0.7499735 -0.08554081 0.74847555 0.10733074 -0.55170107 0.77831423 -1.2793804 -0.19998628 0.76486623 0.26354802 0.6924393 -0.4192408 1.0299859 -0.19068472 0.83008885 0.1625042 -0.3821625 0.44280556 -0.15177624 0.5023614 -0.033053275 0.026019571 0.037638325 -0.1023503 -0.6327823 0.10736378 0.6775332 0.05375422 0.09782169 0.36672747 -0.25773463 0.3545554 1.2093016 0.64274347 -1.521224 -0.9363951 0.03188492 -0.71983796 -0.06991315 -0.21749613 0.7143489 -0.666472 2.2449534 -0.09887075 -0.14198133 -0.2512373 0.08642688 0.103924625 -0.25341788 -0.502352 0.3269919 -0.44837925 -0.46624476 -0.66505796 -0.989702 -0.58154523 0.15169285 -1.1757017 -1.5840322 0.57923025 -0.5669378 -0.3864883 -0.6576758 -0.8997261 -0.6103348 0.19852056 -0.8638421 -0.0339425 -1.2781143 0.22804344 -0.04360884 0.71711916 0.7758797
quando -0.40900794 -0.302966 0.37105018 -0.017815933 0.6824765 1.0009527 0.02638609 0.26022553 -1.0137455 -0.16417846 -0.31569472 -0.049067877 -0.23315136 0.4104862 0.3258417 0.040028475 -0.17510137 0.0025564425 -0.1831516 -0.5290177 -1.0012547 0.62096334 0.9874602 0.3757276 -0.40066966 0.135637 0.6225862 0.19703035 0.49922815 0.36501512 0.5208923 -0.7235157 0.47206858 0.3680893 0.56313634 0.009408536 -0.047535013 0.9567142 0.7255281 0.6729659 0.1651773 -0.40271205 -0.17524347 0.15848947 0.80382663 0.06035943 -1.1790398 0.27303693 0.29906416 -0.64544284 -0.354111 0.40774238 -0.18162046 0.34544674 -0.54833233 0.3024799 0.16116977 0.32414284 0.06711128 0.063246444 0.10281701 -0.585285 0.5796911 -0.48286277 -0.2699501 0.23864268 0.6838417 -0.1473756 -0.8565738 1.4174196 0.4780671 0.4104592 -0.5245543 -0.2128209 0.27481672 -0.72988147 0.003895604 0.2279054 0.67223155 -0.32641563 -1.7039487 -0.61970943 0.16078945 0.3145697 0.28358072 -0.3127451 0.0416375 1.1708704 0.16273782 -0.24365555 -0.17446308 0.46748638 0.49848747 -0.46761322 0.60029095 0.19340421 0.9148161 -0.2540404 0.18849586 0.183732
eu -0.1428906 0.35701278 1.3900117 1.0783008 0.801518 -1.3897456 1.067668 0.0694575 0.44006532 -0.1477218 -0.73269 -1.3834447 1.4719095 -0.6411485 0.7181888 -0.14094192 -0.11285849 -0.41208202 0.71337277 0.8772219 0.7576095 0.70770395 -0.96297437 0.40450126 -0.29698414 1.3347352 -0.84319115 0.67744714 -0.36356348 -0.24531913 0.22369923 1.0867274 -0.8204587 -1.0712236 -0.062202435 1.4151134 1.2369674 1.004421 -0.0455836 0.8920842 0.24350132 -0.3165315 -0.65523326 -0.19572619 0.33207083 0.087247506 -0.36408085 -0.4544184 0.9293262 -0.25254297 0.14426264 -0.8104679 0.06852754 0.8503517 -0.85621905 2.5118365 0.8633651 0.6076212 -1.5962138 1.473048 0.60002315 -0.3205959 -1.1536343 -0.33796218 0.260057 0.091419935 -0.35741007 0.035049804 0.38295206 0.25189027 -0.11371849 -0.68888205 0.91289055 -0.2285515 1.0600498 0.44007996 -1.47706 0.21760403 -0.33517554 -0.13724183 -1.2830904 0.5970808 -1.3139728 1.1236148 -1.2800326 -0.5814463 0.423827 1.3598396 0.747669 -0.67542756 0.51943743 0.6742937 -0.13135785 0.0062953644 1.441625 0.11569486 0.86279726 -0.6069698 0.022960596 -0.66410977
era 0.86142063 -0.593175 1.167674 0.34573016 -0.018671125 0.37085024 0.05213318 -1.4452168 1.1562408 -0.9354329 0.49322397 0.31114468 0.68495345 1.4234724 -0.6925831 0.41935325 0.83604956 0.46331215 0.58652717 0.285106 2.0659876 0.051397223 0.8062491 -1.257368 0.7805758 -0.7712876 -0.5376803 0.963203 1.6791699 0.9584515 0.9150058 0.6404937 1.1637759 -0.41268477 -0.17760669 -0.20391797 -0.82863694 -0.8879649 -0.25380322 -1.382689 -0.16557544 0.12050695 0.8304117 0.19147272 -0.85542566 0.15131478 0.12966564 -0.2771177 0.5548532 0.21989971 0.70078444 0.6082174 -0.27423853 -0.5639925 0.69883835 1.9003308 -0.9470237 0.34110025 -0.10219017 0.24443302 -0.17074646 1.5147644 0.22966093 0.6198958 0.78045934 0.90404916 0.28374517 0.50329167 -0.24436265 -0.013608646 0.13765585 0.013273028 0.46289748 -1.487615 2.4541667 0.04325276 0.24806188 -0.23853822 0.8524487 0.16340105 -0.40018427 0.45857137 0.48802823 1.4916433 -0.26075763 -0.93042654 -0.13328777 0.11804949 1.120748 1.1737405 1.7375094 0.21085992 -0.88516986 -1.6897101 0.945377 -0.011935909 -0.0361674 -0.18026993 0.02129846 1.0155541
à 1.542456 -1.3073772 0.1339254 -0.8460359 0.52104515 1.7835717 -0.8837041 1.7286947 0.68979716 0.4696555 0.2008105 1.6394486 -0.042793903 -0.92277855 -0.7075662 1.1725273 -0.98540837 0.37896442 -0.72856385 -1.6038975 -1.3240867 0.5165598 1.9783653 -1.0360261 1.5066004 -0.20840645 1.3370553 1.2509884 -0.5864396 1.3237069 0.96821606 -1.5697485 0.9491169 -0.71565557 1.2140977 -1.1450086 -0.8132872 -0.62352496 1.4352385 -1.1776727 0.389529 -3.0731034 0.25193256 -1.5370089 0.8235051 -1.1239715 -0.9537002 0.030319508 -0.71132725 0.8914354 -0.94697714 -0.77310026 -0.9189489 0.7754141 0.57545704 -0.026089396 -0.024137124 -0.2261526 -1.6667898 1.2317264 -1.0558792 0.68068343 1.9912401 1.8357134 -0.16222869 1.2509029 0.8266486 0.9010915 -1.1793085 1.0183034 1.3782651 1.1214081 0.17737451 -1.0109385 -0.14465727 -1.7615097 -0.8646325 0.22463459 0.27442944 -0.9324624 0.9381805 -2.0504613 -1.6785356 -0.0032452075 -0.20986064 0.64916605 -0.91434884 0.42911863 -0.04347786 0.8381136 -0.48156106 -0.6626679 2.6239166 -0.15462314 -1.3511275 1.6108292 1.1057011 0.70159554 0.25861293 -0.87439466
ao -0.19920318 1.4516784 -0.78407705 -0.07118333 -0.22938283 -0.8651553 1.7089058 0.5778625 -0.4706022 -0.95856065 -0.2901536 1.3828415 -1.5552912 0.50615 0.610711 0.6927495 0.54227555 -1.0155308 -0.4247201 -0.8468092 -1.0521927 1.5554299 0.39216897 1.7820743 1.765375 -1.2666608 1.3428266 -0.29625803 -0.29516757 1.671428 1.4077376 -1.4965181 0.5619018 -0.48823184 -0.44335428 0.09030479 -2.8370466 -0.33385912 2.0356474 -0.004905014 -1.1403624 -1.2559006 0.27670842 -0.7621232 0.7802563 -1.1976591 -1.2487061 -0.36092865 -0.38155225 0.42592004 -1.6309792 0.47735894 -1.2655668 -1.5499485 0.89236695 2.2871063 -0.6691865 -0.4224861 0.6201079 0.6021455 -0.82455033 -0.27933273 0.46611503 0.82036096 -0.3623499 0.58599246 0.40450045 0.043515842 -0.16006358 -0.1692717 1.274112 0.0715051 -1.2531345 0.53779227 1.3503776 -1.026591 0.051929027 -0.55888325 0.3291675 -0.6183017 0.7919467 -0.7261663 1.5248674 0.58914423 0.67176676 0.6522088 0.5150322 0.57537985 1.6571062 1.124411 0.10362309 -0.15146285 0.77251166 -0.21340936 -0.5773454 0.52552605 1.0934368 -0.8577777 0.6327777 0.748034
muito -0.48623848 -0.530192 0.2215235 0.24079372 -0.7606775 -1.0953273 -0.48620325 1.4481938 1.0527822 0.10168702 0.29862317 -1.0419406 0.8854635 0.9323214 0.4855126 0.53844565 0.17447752 0.21400006 0.063759595 -0.51345843 0.98318803 0.35597217 -1.2499748 -0.64262676 -0.041851588 -1.3427296 0.17882946 -0.21494026 0.15171793 0.7350025 -0.18467203 -0.2302535 0.70630217 -0.8377197 -0.68780774 0.3805213 -1.0919284 -0.09451128 0.27621812 0.3105231 1.5034578 1.3601238 0.3940627 -0.1661131 0.81711787 0.6106948 0.18181843 0.121141724 0.5052393 0.6255429 -0.809652 -0.773065 0.5035736 -1.0861124 1.061133 0.48067906 0.0146743655 0.27661738 0.29734948 -1.1449876 0.76760584 -0.5309213 -0.61418813 0.25967884 -0.6001795 0.93995035 -0.7745541 1.2752621 0.34510145 0.27267495 1.8430781 -0.05926604 1.6030484 0.7274294 1.8283665 1.987089 0.49907824 -0.6651481 0.5828809 1.8048095 -0.7909761 0.71480674 0.10216766 0.013197934 0.18282935 -0.41514334 0.21189782 0.89834374 1.0533775 0.37565437 0.3911007 -0.25601372 0.70396996 -1.1115423 -0.42155328 0.73671997 0.13656732 0.8653631 -0.47350216 0.06455323
foi 1.8596437 -0.89323235 0.3387633 -0.025952179 0.08671769 -0.3964415 0.81051594 -0.8832533 0.14187282 -2.0045414 0.7849431 0.60342276 0.18823904 1.5315251 0.46886736 0.6693288 -1.090992 1.5867074 0.82647645 0.12309338 0.2104971 0.05804567 0.6047943 0.09317166 0.15669723 -0.26686049 -0.038240883 0.22120579 -0.07321798 1.4115535 1.0666755 0.6041891 -0.92372316 -1.0370868 -0.3465383 -0.2315363 0.20639834 0.60215014 -0.61070454 -1.1439961 -0.050298523 -0.4538463 0.49374813 0.3681948 0.28975174 0.6188172 -0.6800257 -0.20247799 1.6372136 -0.87674445 0.089518495 0.8131763 0.42473277 -1.0516167 0.33162755 0.7263016 -0.047657344 0.8126741 -0.9934603 0.5644627 -0.6431711 1.1480538 1.9970924 0.069896095 -0.28123996 1.290117 1.2415261 -0.16018029 -0.8588957 0.059703905 0.13914883 -0.25702733 0.026477499 -0.83806497 1.1629623 -0.52971745 -0.047314573 0.52740836 -0.683818 0.52979934 -0.35725114 0.0011939446 -0.03150483 0.8089675 -1.6388749 0.036308657 -0.067800425 0.30977306 0.97449 0.054168385 0.7318728 0.80648744 -0.15662698 -0.18856062 0.02925652 -0.27357894 0.54762244 -0.71125245 0.18276885 -0.07763306
hagrid -0.48619336 0.7233114 -0.55732733 0.034420196 0.791109 -0.5222258 0.099578016 0.90095973 0.42802364 0.031160528 0.9438643 -1.1925714 -0.15493318 0.16224895 0.7026775 -0.37674397 -0.30452615 -0.026288256 0.31474417 -0.025223635 -1.1093779 0.5710065 0.12414034 0.50069475 -0.2810662 -0.5299407 0.21529156 -0.36277965 -1.0228553 -0.5896393 0.7592218 -0.7151092 0.17430994 -0.07953895 -0.25648862 -0.00749908 0.99419785 1.3551595 -0.61164 0.12353574 -0.0059980913 0.68478835 -0.4967555 -0.253036 0.0881576 -0.15223299 -0.20476422 0.8153654 1.050465 0.012591379 -0.47102 -0.07271247 -0.26091146 0.6640961 -0.22325973 0.4202668 0.8370375 -0.30394512 -0.28437567 -0.5503294 0.31315666 -0.10060047 0.52525663 -0.12853996 -0.43215665 0.0037016664 0.14012282 0.31307206 -0.29643822 0.6136989 0.61938447 0.26148155 0.16457206 0.8544401 -0.00095483655 0.7265863 -0.72456914 -0.30920646 -0.8225363 -0.3812383 -0.3639229 0.17301609 -0.55385363 -0.029798232 -1.6625468 -0.21684454 -0.21439986 1.2689893 0.24082772 0.18827975 -0.34356084 0.4447125 -0.003135874 1.2879101 0.71623653 0.4332897 0.7231689 0.82625026 0.55670446 -0.8015785
está 2.228064 -1.8833398 0.17980753 -0.8502367 -0.15209572 -1.2286618 0.56840485 0.14582935 0.098726615 -0.7561891 -0.28346816 -0.121408395 0.4631756 0.93216133 1.6352247 0.8019383 -0.4622488 2.4537082 0.9831151 0.13435426 -2.0129957 0.2600618 -0.23791353 0.17879917 0.6858964 0.6616427 -1.0594931 -1.2458552 -1.3509955 0.19547719 -0.42772663 -0.46339658 -0.3107193 -3.4269402 -1.3067718 -0.5975318 -1.244555 -0.5198123 -1.4433883 -1.0518223 0.1492372 -0.077862665 -0.53221834 2.278301 1.7549927 -0.28259423 0.7154508 -0.6099813 1.5175322 0.29543677 0.45200193 -0.084803365 0.9077869 -0.9816571 1.2891489 0.26454893 -0.051646374 1.4735332 -0.56846315 -1.3040713 -0.689803 0.9654976 0.4982775 1.0907481 -0.105466045 1.7170397 0.7472524 -0.49029008 -0.34769726 -0.776544 -1.568274 1.1389829 1.5296005 -1.567571 1.8906083 0.740482 -1.4110641 1.3986183 -2.442386 1.5949128 0.40715384 0.6190589 -0.35194036 -0.2358051 -0.4640396 1.121763 2.4305685 0.23822448 -0.34508455 -1.0107658 0.12494372 1.3003926 -0.6016874 0.93267846 0.75640965 0.9178714 0.24995707 1.1799527 -1.5566179 -0.10705468
dos -0.06426439 0.30828378 -0.5071575 1.2452765 0.043019883 -0.2716208 -0.2067058 1.3981719 0.6009855 0.07192172 0.014843669 -1.101246 -1.80803 -0.2629467 -0.53876436 -0.51205534 -0.60012954 0.085117705 -0.04075759 0.11607596 0.7960185 -1.9566201 1.488958 -0.37221697 0.90441585 -0.014896363 0.24841076 -0.4698454 1.0407348 0.7894036 -1.087331 0.7962106 1.4065537 -0.42722675 0.27816734 -1.2353524 -0.5035711 -1.3115158 -0.14687788 -1.4715891 -0.52421933 0.17230265 0.5234349 0.470521 0.42555612 -0.22985907 2.0261853 -0.4644772 0.698664 1.3910817 1.2757946 -0.32349652 3.0599866 0.6066322 -2.0189314 0.3277345 0.42324865 1.0415726 -0.48481962 0.3757146 -0.06100155 0.11861092 -0.23443057 0.23146279 -0.99504614 0.08733352 0.5165026 2.8374949 -1.416866 2.1154404 0.36885226 0.85217416 0.63827825 0.22362533 -1.7025224 0.10937715 1.17356 2.1148355 1.1383154 -0.23654068 -0.315289 -0.867472 -0.47500372 -1.9866271 0.99299955 0.5345375 0.7678238 -2.4100943 0.876743 1.0322337 0.4343194 -2.371078 -2.1964605 1.1913716 -0.85732853 0.8775259 -0.9799843 -1.8411204 -3.1746254 1.8271879
coisa -0.06901364 2.1658554 -1.0978657 -1.7139971 -1.9401008 -2.237515 -0.9148565 -1.7441546 -2.5838177 -0.61327934 2.1560535 -2.2774768 0.5273295 2.340154 1.0992765 -2.2629764 1.57648 -1.236401 0.84447306 0.72964203 0.4575405 2.070059 1.8971251 0.13724907 -1.9077564 2.229328 -1.4823904 -1.1221185 0.6512423 -1.4805977 0.01921916 -0.31541738 1.5923837 0.3874486 0.62638885 2.5371587 -0.4032785 1.4553223 -2.1256564 -0.3236573 -0.7756369 -0.21163183 0.109725215 1.0691308 -0.86964935 -0.4784563 1.3063164 -1.4273635 -0.2543806 -1.2809354 -1.8798981 0.2167106 1.4909528 2.4693782 2.1452386 -0.34223905 0.66666526 -1.3432589 -0.8674021 -1.675019 1.5104944 -0.4718728 -1.9141016 2.1018581 0.01574259 1.2995526 -0.37907636 -2.307122 -2.1505654 2.7719598 -0.41053993 -1.2556921 1.2059289 0.8176556 0.3903301 1.8065413 -1.3684788 1.158338 -1.6311239 -1.7603852 -1.4078684 -0.73270124 -0.46152177 0.89612365 0.16585869 1.3805301 -0.14799121 1.8672463 0.814675 0.5714949 -0.114609815 0.81878346 -0.64878476 -1.0400488 0.6571368 -0.8473306 -1.4130127 1.1431019 0.7074399 -1.0836121
me 1.11007 0.0020717836 1.1257768 -0.5864243 0.6850585 -1.8755672 1.4844497 0.34875992 -0.66694224 0.027234077 -0.22860245 -1.4330807 1.0552914 -0.13116549 1.2992163 -0.95598286 -1.334101 -0.029761929 1.1975945 0.47617364 -0.09765897 0.47524256 -0.045198746 0.32740813 0.34452298 1.1579554 0.2346329 0.39951313 -0.4158294 -0.23407422 0.3787978 0.5914497 -1.5045663 -0.60779655 -0.06317177 0.63594425 0.94598967 0.84970474 -0.115179904 0.12720838 -0.19300388 -0.06711793 -0.22710754 -0.36414248 0.19386539 -0.6243239 -0.7660374 -0.32975733 1.6421834 -0.20709041 0.37636235 -0.49881682 0.42335808 -0.016315352 0.11477136 1.8165509 -0.15951337 1.3251088 -0.70738304 0.5947488 0.2928937 -0.50725216 -0.6046991 0.5764422 0.4187085 0.26949728 -0.7610122 -0.29929906 0.19760941 0.4742604 -0.5354063 0.275462 1.012108 -1.0246131 1.1045245 0.12825868 -1.8883159 -0.15916322 -1.4383044 0.30988783 -0.74129796 0.24865323 -1.5972685 1.3049737 -0.33141392 -0.28256056 0.3241429 1.4783666 0.49403092 -1.1803105 0.64515674 0.62736 0.21913123 0.011406636 0.8052571 0.5484514 1.4316245 -0.4899378 0.6622385 -2.633288
hermione -0.4182894 1.5854981 -0.7801028 0.32823035 0.67710376 -0.09478105 -0.38006166 0.4315189 -0.623071 -0.61395514 -0.6241661 0.08611379 -0.10379182 0.7777882 -0.07408566 -1.0106432 -0.5496034 -0.13565722 0.30409345 0.20573123 -1.8114716 0.0034331572 -0.7221147 0.29997593 -0.00040832764 -1.0116888 0.44521984 0.057564866 -0.9310501 -0.35537097 0.35331407 -0.67186683 -1.215863 -0.93623555 -0.3666479 0.5696793 0.021403104 0.8587421 0.17754354 -0.50216883 0.032777175 -0.39451137 -0.605902 -1.2803617 -0.33089605 -0.150836 -0.04736247 -0.44900474 0.22817163 -0.4970414 0.08717508 -0.8602868 0.07836505 0.0984324 -0.52903026 -0.19302979 0.88733304 -0.71231765 -1.2349268 -0.1874574 0.76198363 -0.32281044 1.5708833 -0.7460387 -0.75015104 -0.27543044 0.3386293 -0.4085322 -1.5670631 0.20112725 -0.13580218 0.46202824 -0.33715323 1.3373059 0.6364704 0.62118804 -0.1265155 0.6604456 -0.7311673 -0.5367491 0.33615023 0.09776784 -0.56005263 -0.16464408 -0.8882235 -0.972328 0.045311596 1.0444345 -0.29994997 1.8378675 1.1652796 0.8709335 0.52640444 1.1538894 0.064953595 0.046252128 0.35864088 -0.5455237 0.6926574 -0.795853
sua 0.13364637 -1.4592173 -0.53397834 -1.6120049 0.8450419 0.06126759 -0.9503378 1.5227528 0.2612745 0.48531953 1.5314265 -0.29009637 0.42167675 -0.5969609 -0.19998834 -0.74100924 0.65822285 1.2628627 0.6463717 -0.040213387 0.36844856 -0.9907494 -0.39058977 -1.2595108 0.9029672 0.15425982 1.5440899 0.875704 0.34078395 -0.13354298 0.9678889 -0.94693244 0.56794596 -1.0919712 1.4701202 -1.1706009 -0.052001588 -1.1887544 -0.49072698 -0.97857404 0.25958443 -0.40387464 -0.7890469 -1.6782069 -0.87007105 -1.5828439 -0.4850671 0.53837866 -1.5409353 -0.002613625 -0.2926148 -0.89439374 -0.30097684 1.2137438 -0.15745851 0.20322147 -1.0870447 -0.8957104 -0.14165193 0.76548785 0.66259754 0.42055175 1.2501144 0.6376502 -0.21368518 1.6216148 0.4683876 0.77236277 -0.6280833 0.5615308 0.7271348 1.4062469 0.7960112 -0.8324717 0.3516973 -0.49818957 1.3602798 -0.9016327 -0.5917725 -1.2576517 -0.5796026 -0.4618671 -1.3232516 0.43945092 -2.5632298 -0.40421706 -0.6349775 -2.1027782 -1.2049136 -0.82130885 -0.03300455 0.010978619 0.42259446 1.6200099 -0.80451554 -0.11601216 -0.53677714 1.0389441 0.9335892 -0.13264437
seu -1.6624925 -0.405321 -0.9203462 -0.6760474 -0.56305915 -1.3597392 0.11991144 0.2407738 0.8288652 -1.0518425 1.4959192 -1.3899533 0.5515956 0.3200921 0.40709364 1.0506232 2.348586 -0.97124493 2.2516086 -1.4054703 -0.3903044 0.26428238 -0.348695 -0.0067872507 0.17522714 0.05448994 -0.7832555 -0.33879334 0.9683751 -0.54536504 0.25280192 -0.5956921 0.61901313 -0.31805038 0.13068244 0.117803 0.11731999 -0.61417896 -0.65550613 -0.064806774 -0.10649567 0.21405716 -1.2622921 0.81456655 -0.112797365 -0.70486814 -0.42341334 1.5133051 -1.163834 0.42284772 0.34895876 0.18065251 -1.0944391 0.2736446 -0.45882827 1.8825197 1.2913572 -1.4307804 1.3074224 1.563177 -0.38219297 0.6176224 0.36224353 0.9158075 -1.3355967 0.14109102 -0.93687224 0.5325448 0.88373524 -1.3277509 0.91727847 -0.2325074 1.0922549 0.9740568 -0.96175283 -0.7554696 -0.35204622 -0.8487239 -0.89225155 -1.7821428 -0.3060338 0.7734199 1.245833 1.1002747 0.5044444 1.6934028 0.996408 0.75839114 0.95094466 1.1445554 -0.8253266 1.8969628 -1.4095953 1.3423215 0.95801395 -0.38568857 -0.4031685 0.021789728 0.5801813 1.4267646
eles 0.2008726 0.4183838 -0.47414237 0.44851774 -0.09719694 0.20920596 -0.17655697 0.9263726 0.91242176 -0.06278873 -0.3488681 0.55437005 -0.67219424 -1.201793 -0.5905314 -0.27995887 -0.267557 -1.1995215 0.1277885 0.027507156 -0.7731295 0.8399069 0.5241004 -0.1622399 0.30327716 -0.45778972 0.47921252 -0.45577145 -0.43955705 -0.18705198 0.3072986 -0.30518872 -0.27539763 -0.016227847 -0.009013272 0.9239276 -0.9256562 -0.2113295 0.9648661 -1.3424295 -0.021538721 -1.1270579 -0.98084366 -0.2989638 0.96618354 -1.0021976 1.0859212 -0.36027032 0.62525624 -0.5016548 -0.08157105 -1.2088724 -0.37221768 0.9259996 -0.39587668 -0.0138687035 0.21144019 -0.8560328 -1.3144914 0.1946948 0.93442565 -0.41993657 0.58925307 -1.0422394 -0.41062248 0.26264077 0.36994547 -0.10657635 0.8115909 1.3513618 0.89367557 -0.3672607 -0.44930932 0.974347 -0.44390953 -0.14178997 -1.0353924 -0.21987256 -0.103970215 -0.39140233 0.4168453 -0.2181242 -0.91121674 1.045321 0.12010297 -1.1222093 -0.10523599 0.32994136 0.32479066 0.85533655 0.33364555 -0.24382168 0.40435424 0.026052054 0.07783038 0.3029316 -0.43029073 -0.19422217 -1.4241041 -0.68942565
ela 0.16806437 0.96146554 -0.6706703 0.18415713 0.4184181 -0.81448567 -1.0968943 0.39800107 -0.7470544 0.049866483 0.2723537 0.1901599 0.12225672 0.37482667 0.44630703 -0.12862702 -0.7885705 0.16613698 0.17559433 -0.028800922 -0.3925985 0.30195662 0.1201705 0.27688158 -0.5668417 0.051645216 0.14548616 0.76040375 -0.5979238 -0.04619879 0.5636104 -0.23274915 -0.4632283 -0.024365399 -0.14899461 0.7972222 1.0078105 0.5568501 -0.76234174 -0.5269877 -0.05105203 -0.11481644 -0.31491926 -0.58746076 -0.72628665 -0.28066346 -0.01327177 -0.40699592 -0.15015216 -0.9311619 -0.29874107 -1.0805161 -0.5403194 1.1227068 -0.004478432 0.008176937 0.7878339 -0.24406408 -0.99397486 -0.14602113 0.8045757 -0.33915237 1.1385617 0.25174683 0.56271213 0.35809729 0.30801195 -0.25160855 -0.50518924 0.9129693 0.1216205 0.1706916 -0.19269587 0.4554509 0.20786975 0.5360574 -1.0988142 0.64020133 -0.7495173 0.21386145 0.26205152 -0.4009075 -0.39146885 0.33759308 -0.78964055 -0.5771719 -0.30669773 0.42674068 0.22395168 1.0243686 0.4332823 0.75336033 -0.32287458 0.59200627 -0.60452753 -0.30564383 0.1652176 -0.21081668 1.1004138 -0.57420635
bem -0.4118257 -0.49316385 -1.4015305 0.69686913 1.0244378 -0.3908963 -0.3291496 1.123572 -0.22646812 0.6394013 -0.8708505 -0.73907495 0.8640842 0.41176683 0.68400973 -0.25970504 0.36063847 -0.7707048 1.5352942 -0.031075327 -1.1652157 0.34501743 -0.92586744 -0.73495734 -0.4074054 -1.1368761 -0.9757958 -1.2447633 -1.0680524 0.14016677 0.57398874 0.19007735 -1.2694852 -1.1501096 -0.20418221 0.21989964 -1.030881 -0.3936413 0.4946259 -0.9879743 0.1832512 0.94274586 -1.0243894 0.32971704 1.7136375 1.5964521 -0.51057476 0.32719904 0.7635815 -0.23657237 0.8660008 -1.0856723 0.80369914 0.10829241 0.8415373 0.0074389153 0.35330674 0.5507248 -0.7046125 -0.66081727 -0.4130886 -0.21828827 -1.5696018 0.70078766 -0.027218807 -0.5052039 -0.7549496 -0.12818679 0.024386676 0.54125404 0.41698733 -0.20854653 1.3032987 0.76903105 -0.423056 0.07161289 0.3189827 -0.25266597 0.41674626 -0.57964927 -1.261404 0.31516257 -0.9921482 -0.64749897 -0.13879278 -0.19846134 0.3961585 0.50125444 0.24295701 0.5623968 1.375955 0.49381348 -0.15715636 1.3468192 0.13712652 1.1451284 0.061377656 0.66743517 0.35313547 -0.522368
das 0.19839203 1.5612725 -0.36374876 -1.082597 -0.32255292 -0.4153559 -1.0343672 -0.18748769 -0.41352943 1.232397 -1.8828635 0.23725569 -1.409567 -0.85036355 -2.0955718 1.3400071 0.73410827 -1.0552084 -0.9072568 -0.47056416 1.0354673 0.09758316 1.2947989 -1.0542977 1.727698 0.5481273 -1.7004361 -1.3264697 -0.75427073 -0.2902505 -0.6700572 2.201357 1.3957185 -0.27302215 -0.9321201 1.6441149 -0.545246 -1.444861 -0.8046737 -1.3592815 -0.39358294 -1.506149 0.29775023 0.08585411 -1.6019038 -0.49537644 0.922386 -2.645719 -1.2762098 0.951034 1.2094778 -0.57985777 -1.8311567 1.4049459 -0.7622414 -1.2073615 1.7426335 -0.02226062 -1.9127823 0.7126792 0.9772607 0.04141942 -1.8262357 -0.10584338 0.2239332 1.9248857 0.8057775 -0.8664965 -1.7475449 0.7318674 -1.8124608 -0.6336478 -0.9784788 -0.66566044 0.748228 -1.8979311 0.64321357 0.007688538 1.2475336 1.1225467 0.8277745 -0.69247967 -0.89318717 -0.31931716 0.91642135 0.006850474 0.94006866 1.004573 -0.3890366 0.9965448 -1.0879611 -0.71692795 -0.22774626 0.42256612 1.4693179 -0.45508638 -1.6823223 0.3191676 -0.8702383 2.057183
cabeça -1.0968976 0.61458313 -0.56160617 0.041333746 0.8513949 0.31015784 -0.7128278 -0.025363628 -1.4596466 -1.4285218 0.4827301 0.2936683 0.2619261 1.2352365 0.21216223 -0.024572518 0.46556735 -0.20562439 -0.56319076 -0.111585505 0.8898102 -1.3555511 1.0560682 -0.500754 -2.176803 -2.14367 0.66316897 0.3856831 -1.035052 -0.8159182 1.3093573 -1.2412765 0.8133587 1.170727 -0.22762592 -1.3944546 0.9195485 0.19044198 -1.2410185 -0.6837273 0.078931265 0.51475936 -0.7379755 -0.08024909 -0.7003834 -0.4581823 0.36140442 0.32696137 -1.0460058 0.27925798 -0.17601497 0.023864701 -0.5248058 -0.58943546 0.5950068 0.6730311 -1.2119287 0.21380459 0.5080979 -0.89624214 1.870772 0.9630925 2.017407 -0.5150167 -0.98469585 0.122051835 1.4731416 1.3019601 -0.35517272 0.5358603 -0.9958796 0.6964089 0.18271911 0.7736023 0.08593565 1.4933201 -0.48815727 -0.15711656 -1.7194909 -0.25073552 0.7575464 0.74056077 0.066933565 1.0914762 -1.3231379 -0.03666801 2.0205288 0.13055882 -0.24130793 0.1438393 0.2286107 1.1293385 -0.64879984 1.4028245 1.2530982 2.2109897 0.2032898 0.20324048 0.79210216 -0.19380647
olhos -1.1603241 -0.8353257 -0.81476104 0.7778534 -0.74243575 0.6047909 -0.70135456 1.7929 0.5367917 -1.0216478 0.11396157 0.42044163 -1.2764926 1.6145505 0.18152936 -0.86450195 0.3856069 -1.0847964 -0.25825354 0.8173007 -0.49689004 -0.47908485 1.269501 -1.9042293 -0.8533929 -1.639854 -0.4072582 -0.43789676 0.32746062 0.3737932 1.1919091 -1.0368118 0.38483596 -0.03149462 -0.3638568 -0.44369578 -0.07469322 -0.1305231 -2.0133615 0.11513558 0.22980279 1.4561992 -0.9389933 -1.1802863 1.0639981 1.1435721 0.3568618 1.0339086 -0.7431783 -0.91631585 1.2729464 0.1662836 -1.0385739 0.4455852 -0.9509713 -1.975827 -0.12589383 -0.89753217 -0.24198014 -0.59833086 0.4404565 -0.647475 2.0158887 -1.3194617 -0.01487991 0.17012267 1.07898 1.190172 -1.1750644 1.3633834 0.13820693 -1.8240454 -0.025227739 0.5512406 -1.6579605 1.6143963 0.05567849 -0.53479975 -0.6233155 0.3021706 -0.80165064 0.5754419 -0.8613654 0.6567459 -0.056792982 -1.9791389 2.3795044 0.6461056 -1.7644352 2.0161788 1.5650525 -0.21465541 -0.73192376 -0.1782281 1.7091877 1.9423229 -0.18101184 -0.05940239 0.6368749 -0.07572329
isso 0.28867072 -0.26216757 -0.80856484 0.09417963 0.106866725 -2.3183393 -0.266661 0.64738834 -0.49666834 -0.34537083 0.2091423 0.36819646 1.90011 1.1031291 1.0498266 -0.19982149 -0.28500125 0.27821597 -0.053413033 -0.6752168 0.090156 -0.08985827 -1.0003843 0.1740107 -0.64133763 -0.4846694 -0.30658948 -0.1524626 -0.61504257 -0.8768507 0.7667486 1.0906637 -0.7722633 -0.670305 0.42671582 2.080473 0.49331662 1.0058933 -0.63781494 0.797489 1.4891647 -0.24140486 -1.4744682 -0.2801075 0.4745547 0.05470961 0.5596732 0.028334655 0.70287764 -0.5906404 -0.09831167 -1.3998339 1.1607267 0.3571201 0.79413235 0.43172657 -0.17651314 0.8231614 -0.59836733 0.16945197 0.6405749 -1.3599097 -0.062551886 -1.0566223 -0.3095817 0.1350092 0.7186585 -0.6026181 -0.8352878 1.0122671 -0.56834334 -0.4312095 0.36492556 1.091088 0.7636697 0.26422992 -0.7143043 -0.18041515 -0.9768718 0.38547423 -0.37075445 -0.4180506 -0.8473583 0.8006666 -1.1070852 -0.39983004 0.09664841 -0.62201285 0.9591165 0.1805533 0.29193175 0.44860807 0.5969003 0.7172433 0.55120283 -0.18790817 0.03553046 0.09717936 0.01115442 -1.3662006
até 0.91148436 0.074016176 0.121200554 0.56291527 0.59888923 1.3505356 0.39176625 0.1525078 -0.0553264 -0.7221072 -0.5347172 0.6126184 -0.72669405 0.5134135 -0.2773071 0.65683043 -0.48868853 -0.10378632 -0.6341352 -0.6551966 0.035659797 0.019402111 1.2736622 0.4172267 0.52251357 -0.06493378 0.14328532 -0.5375749 0.4679245 0.60046357 0.38915947 -0.7645188 0.8839876 -0.45301574 0.33553493 -0.2590196 -1.0978354 -0.3443306 0.9779898 -0.34924373 0.023439867 -0.40486377 0.0819791 0.58897656 0.5617168 -0.29505974 -0.15721764 -0.495943 -0.06176197 0.12026089 0.019505985 0.47819102 -0.4711926 -0.28048602 -0.07500372 0.53907436 0.03609592 0.028088175 -0.0776574 0.3736829 -0.5046836 0.20331897 0.7727398 0.21212375 -0.44220066 0.39802918 0.98849404 0.33764523 -0.1965131 1.2821183 -0.5886518 0.38332644 -0.3177171 -1.1959168 0.0693114 -1.2599568 0.5475253 0.22583437 0.99753505 0.20087875 -0.85203725 -0.5703437 0.6292606 0.17058043 0.5967142 0.17601639 -0.08214515 -0.100994594 0.23792078 0.0023671875 0.16720599 -0.6505398 0.31593353 -0.7707911 -0.13376851 0.46316683 0.6605822 -0.59132195 -0.7189144 0.9822382
ter 0.111013815 -0.63879687 -0.79843277 1.3941656 -2.708458 0.023557939 0.82152754 -0.5008941 -0.5704773 1.1153262 -0.7958349 -1.8181227 2.3218653 -0.50929034 -0.50283396 -0.8744083 0.52698076 -0.15648223 0.61760265 -0.24262746 2.5544338 1.1208799 1.157578 -0.1570891 -0.41236576 1.3707036 -0.36998403 0.7176852 0.030136768 1.175077 -0.32704434 1.4211068 1.4212843 -0.7360902 0.91705805 1.7624873 -1.1588359 -0.459977 0.26471537 -0.4316609 -0.43317923 -0.7838994 -0.3111233 -0.0032232308 -0.32780266 0.8143814 -1.4729935 -0.4586209 0.57595974 -1.5698109 1.4746157 -0.4531364 -0.48075813 -0.7285729 1.8463315 1.8573241 -0.05348406 -1.3587701 -0.077619135 0.35018873 0.3631519 -0.29210094 -2.6381187 0.8592076 -1.5885278 0.54227287 -1.0329471 0.6312528 1.2824341 1.3556173 -1.474408 -1.9983315 1.1255666 0.28191876 0.2061966 0.8654434 1.2684937 -3.2803469 -1.1603796 -0.87138474 0.07351879 1.9698458 -1.7264466 0.5052453 -0.6897454 -0.9824368 -0.067404546 -0.04291257 0.9566456 -1.7421939 1.6025226 -0.9289663 -1.0562212 0.49885437 1.6173306 0.7479761 0.67603105 0.31620008 -0.47256058 -0.494871
dumbledore 0.40313295 0.8397698 0.15385278 0.7215652 1.7787187 -1.5851383 0.2113408 1.4002504 0.5622737 -1.3232652 0.5303706 -0.4227178 -0.092501156 0.5454035 1.7650992 -0.010712038 -0.72031766 -0.023273416 0.76917857 -0.19296817 -0.56086916 0.66821635 -0.770217 0.1771506 -0.17463453 -0.34377825 -0.1762678 0.4472928 0.23194626 0.6775265 1.0847445 0.7932666 -0.48433366 -0.29397944 -0.20737256 0.52447295 0.9013652 1.3742319 -0.52513 -0.22114103 0.6274739 1.0363863 -1.1131692 -1.4605001 -0.31269345 0.3178284 -0.5810212 1.1286733 0.64390373 -0.5030393 -0.08220157 -0.558015 -0.10681671 1.1172279 -0.5645893 1.2241235 0.018653434 -0.42246088 1.1584538 0.49166363 0.43764865 -0.025198413 0.844368 -0.8596357 -0.20127025 -0.20730256 0.5131968 0.17889181 -0.7726884 0.43244866 0.66374 -0.0790621 0.29468018 0.68585336 -0.24035983 0.66042405 -0.5292941 -0.18119785 -0.21049179 -0.45188972 0.06683076 0.60732603 -0.34336388 0.88613135 -1.5659118 -0.008353521 -0.5281729 0.5972908 0.8218349 0.30797613 0.4689715 -0.012616602 -0.22258024 0.96031654 1.2571727 0.8163181 0.16968603 -0.13126998 1.1033374 -0.8211215
tinha -0.123191155 -1.2372075 0.47364247 0.6667288 -1.0479912 0.6912011 -0.25951242 -1.1351566 0.7400089 -0.07070773 0.7094261 -0.27645224 0.2618485 0.707023 -0.8589919 -0.54565686 1.449621 -0.22360228 -0.017960472 0.24371767 2.7842975 0.82059604 0.76768994 -0.9610675 0.5230877 0.67713183 -0.044457138 0.15976037 0.630777 -0.1588989 -0.3269179 -0.10332879 1.5824285 -0.5579822 0.1487002 -0.12900543 -0.63000256 -0.49894524 -0.21920492 -0.40538535 -0.61298656 1.1512406 -0.4615029 0.5673002 -1.2080711 -0.42110932 0.37646103 0.2534009 0.50267327 -0.38977587 0.7522225 -0.16639148 0.06973198 0.1907683 0.75809187 0.9571547 -0.06403886 -0.6873717 -0.46627724 -0.09986344 -0.49781597 0.30004427 -1.318217 0.89307755 -0.21958198 0.75824934 -0.79080105 0.94346017 -0.0002925807 0.4118525 0.05751965 0.54522735 0.65173346 -1.5428593 1.0646989 0.26350546 1.0771521 -1.1420747 0.0505813 -0.66665417 -0.6092298 0.7653179 -0.057622407 1.3054305 -0.77522254 -1.194682 -0.35695267 -0.21860555 0.90845805 0.34729895 0.9544217 -0.18391776 0.1861557 -1.4286339 1.1338989 0.71957815 -0.24528447 0.15291433 0.36361524 0.28247595
vez -1.4114878 1.8106992 -0.7756428 -0.24981716 -0.47002333 -1.1495701 -0.007138275 0.2251363 -2.8452024 -0.28651893 0.19699824 -1.1917237 0.5122249 0.09769122 0.17750748 -0.96307063 -0.64240235 0.78660923 1.421657 0.982204 2.077 -1.4869764 2.7067342 -1.8658448 -1.7552426 1.3211411 -0.6058084 -1.934213 -0.57259595 1.621628 0.017030526 -0.24571726 -0.30582154 0.8220705 1.0532275 -2.4178424 -0.75349593 1.2748852 0.07297057 -2.227692 1.738455 0.019256901 1.2891859 -0.34532776 -1.3712631 -0.3955442 0.8267989 -2.1355217 1.800791 -1.5098441 -2.1360104 0.34587744 0.6941942 -0.8761539 1.2685937 -1.358195 1.1239903 -0.21526182 -1.1057549 1.8551992 1.191966 0.4360195 1.8827376 2.4145286 -0.38116032 1.6323197 -0.12503158 -1.0923837 -1.1329751 0.8701178 -0.50490063 -0.7915306 1.8819926 -1.373794 1.2779852 0.41081372 0.053398237 0.21165723 1.3248544 -1.7784145 0.026238248 1.3487208 -0.3205786 -0.90365595 -1.4012051 -0.44287497 -0.92355 2.2507477 1.4188428 -0.07929536 0.077378556 0.38842317 -1.0316299 -1.5301242 0.008056278 -1.3614503 -0.8087921 -0.5714343 1.4387884 -0.47137946
perguntou 1.2711067 -0.2893608 -0.17707269 -0.5521484 0.827844 -0.85853696 0.6477503 0.6435393 -0.45345506 -1.3067166 -1.3419043 0.79364 0.08499199 0.1972362 1.4575497 0.3128101 0.13368185 2.161927 0.45427084 -0.6729836 0.021269452 -0.17004064 -0.94828415 -0.78094214 -0.6329511 1.221523 -0.57756025 -0.63989425 -0.9542482 1.0862836 0.13048694 -0.7061007 -1.6270692 -1.6267283 0.15528497 1.2558247 -0.35523853 0.82610565 -1.0732917 0.34186295 0.44702816 -0.66017556 -0.14349912 0.9773179 1.8282374 -0.46025932 -0.3304284 -1.034237 -0.12401549 -1.3747183 1.0937067 -0.32531568 0.9990313 -1.0351981 0.56054753 -1.1673276 0.16854076 0.6705844 0.19166645 0.44019204 -0.4431566 -0.59624434 0.57826173 0.6480979 0.6516819 0.19382899 1.6884611 -0.24383289 -0.65282524 -0.62913334 -1.9849224 0.6622396 -0.41609365 -0.15332891 0.38959387 0.46383587 0.69406825 2.1520019 -0.83580005 0.14315444 -0.8588829 0.52759236 0.66968787 0.8871626 -0.97100073 -0.17276943 1.2965744 -0.70530987 -0.52694863 -0.81968063 0.5273863 0.48345605 0.175629 -0.46168312 1.2063291 0.7862056 -0.042789042 0.32665563 -0.9861613 0.5096151
sem -0.83976984 0.41850933 0.112773955 -0.00074388477 -0.5686192 0.1355263 0.6967929 0.45135626 -0.70626616 -0.7336944 0.71470165 -0.11441944 0.9147488 0.7260199 0.12990095 -1.226457 0.82292897 -0.21756655 -0.5568165 -0.0057743397 0.40069523 -0.42468628 -0.85527307 0.95276946 -0.44531122 -1.3377956 1.3665866 0.08316435 0.18002687 -1.0616226 -0.8847374 -0.74344295 -0.009002929 1.2768937 0.40002608 -0.49554834 -0.5373763 -1.2383554 0.8571232 -0.37410685 0.41004094 0.8198863 0.3333739 0.6736294 -0.37965664 -0.81988275 -0.94975644 0.27074468 0.046118382 0.6553253 -1.1217152 -0.80144054 -0.87900406 -0.98768353 0.32050785 2.1423779 -1.4483069 0.45403922 -0.21213864 -0.10241637 0.5360184 0.3287072 0.19398794 -0.10011294 -0.74626684 0.1526708 -0.37545606 1.4228646 -0.14893162 1.6451734 0.26580763 1.0704036 -0.18774483 -0.93616885 0.8232003 -0.19356737 1.0747571 -1.9297038 -0.20380236 -0.21735957 -0.065291576 -0.6078962 -0.8075093 1.5883878 0.8079738 0.22288828 0.03737848 -0.9209304 0.19485039 1.2184045 -0.017695354 0.23702879 -0.72059184 0.5134979 0.35410252 0.38016358 0.5112311 -1.8295025 1.7355127 -1.0161918
então 0.16260144 0.33966514 0.4345547 0.17785798 0.4183735 -0.22628674 0.3597837 0.4240702 -0.77299607 -0.09512911 -0.32617554 -0.45405185 0.3719443 0.35324517 0.46152332 -0.14156938 -0.3445224 0.3596141 -0.14605977 -0.123926625 -0.641699 0.064773485 0.16162893 0.13228324 -0.48704782 0.14155534 0.3483581 -0.07568412 -0.20829082 0.1229402 0.05775736 -0.009203154 -0.22733113 -0.24333836 0.0870024 0.26770124 0.32434893 0.29535538 -0.13946299 0.09802524 0.13741077 0.279405 -0.19060707 -0.2400079 0.20721209 0.17110652 -0.417045 0.10399843 0.10022604 -0.42643362 -0.11090797 -0.33882484 -0.2908857 0.0530569 -0.26330185 -0.13395649 0.5239766 0.08890311 -0.054666042 0.31445998 0.5347062 -0.1838837 0.3196444 0.26080343 -0.42847872 -0.027569832 0.31428418 -0.053408965 -0.6944005 0.6846709 -0.09660168 -0.32152185 0.19828959 0.610042 -0.16102272 0.30631927 -0.06597352 -0.069913924 -0.80482864 0.22911324 -0.35369006 -0.05364527 -0.5460128 -0.12517124 -0.3100203 0.050791137 0.51346314 0.46224457 0.053245652 0.13314782 0.213704 0.7873433 0.4872128 0.26594603 0.7863797 0.0961333 0.24796307 -0.10531575 0.44395882 -0.5431037
vai 1.156929 -1.6076684 0.92142963 -1.1157266 1.0303404 -0.5774609 1.8304319 -0.07426195 -0.47980767 -0.95370793 -0.32892862 -1.2032113 0.4930839 0.40731502 1.6649799 -0.3451756 -1.4172816 0.8620634 0.7285514 -0.35490522 1.1739517 1.2846451 -0.6715808 1.2635043 0.62267077 0.54705364 0.19975802 -0.81163543 -0.030893639 -0.0444763 -0.6564379 -0.31549618 -0.5365024 -1.9766747 -0.6085541 0.54796636 -0.1836606 -0.1348613 0.35831538 -1.0272862 -0.023510804 -0.771986 0.076240495 0.21113442 1.2535912 1.367581 -0.51614434 -0.8284248 1.1971031 0.4602889 -0.15303442 -0.70929265 0.491505 -1.3504617 1.0785667 0.48871318 -1.5106995 0.4962916 -1.4068798 0.44371945 -1.1845914 0.35780907 -0.56265044 -0.39306003 -0.62076443 0.7666733 0.47438166 0.6265612 -0.40707883 0.8569111 -0.9044749 0.2413827 1.7351092 -2.009312 1.7624705 -0.90408695 -0.6343517 0.6131498 -0.99053365 -0.5911209 -0.45233703 0.06403439 -1.4587924 1.5277796 -0.13167772 0.9778256 -1.0770789 -1.3007412 0.91757095 -1.34566 0.3586398 -0.3530192 1.0894685 -0.285924 -0.4554326 -0.041356083 0.9756334 -0.7861 1.2109264 -1.7703238
ser 0.01233339 -0.61582124 -0.53888327 0.8970096 -0.3893287 -0.9271555 0.056260742 -0.43184763 -0.18492842 0.6204489 -0.4372417 -0.9421406 1.2836293 0.6866006 0.24999347 0.47091475 -0.6030838 0.121158876 0.97087294 -0.064948104 2.3300965 0.4449303 0.4220744 -0.3543448 -0.05202974 0.83021903 -0.49069765 0.9361469 -0.35673684 1.2209015 0.7585194 1.2264714 0.7548775 -0.6097853 0.8942226 0.9159173 -0.33888 0.08778867 -0.3613443 -0.2047489 0.62895715 -0.8394463 -0.053330418 -0.7026396 -0.017159605 1.3299338 -0.3542967 -0.79699606 0.66204506 -0.6392073 1.6936356 -0.3823089 -0.1554839 0.16980332 1.2828526 2.313425 -0.6636059 -1.1124314 -0.42920342 -0.07727614 0.76506543 -0.036167856 -1.3093472 0.3626784 -0.59963876 0.6792196 -0.045992713 0.62324584 1.2734513 1.4873551 -0.9157874 -1.5678045 1.6302356 0.3840136 0.45053142 0.6431104 -0.39224762 -1.5096221 0.32726938 -0.8309614 -0.35342187 0.7405691 -1.4466985 0.41666073 -0.6063045 -0.28389797 -0.07411744 0.2614247 1.4291846 -0.8115366 1.5565448 -0.8367191 -1.2765043 0.30379 0.7323221 1.3970624 0.59220195 0.6837906 -0.42165744 -0.7249318
lhe -0.029457996 0.10176088 0.69502586 -0.34808603 -0.02008749 -0.09935516 0.8480245 -0.13306029 0.36905175 0.17422903 0.7825749 -0.9470741 0.87248933 -0.6906518 0.61202043 -1.5507927 -0.14735882 -0.34531325 0.13173416 -0.2894458 0.7095012 0.67318094 -0.23506014 -0.54989785 -0.41011405 0.71925396 0.6074368 1.0508592 0.48974234 -0.102562726 0.071824685 0.45680615 0.64489263 0.5802976 0.8309626 0.9841321 1.7421087 1.0341867 -0.33760393 0.22318773 -0.32489964 -0.46975288 -0.29685524 -1.0139151 -0.6888354 -0.94594806 -0.9870575 0.2828491 0.39342126 0.3067652 -0.018382499 -0.5601368 -0.121303484 0.7154822 -0.49849394 1.306767 -0.14090294 -0.7950208 -0.008912625 0.70943284 0.47678232 0.18523462 0.12981741 -0.201093 -0.3115042 0.49569973 -0.3124019 0.71795636 -0.17342813 0.64294446 0.009642814 0.6252677 0.5465517 0.007021457 -0.15972568 0.5578749 -0.57729864 -0.7544639 -0.8216388 -0.2597632 -0.2727777 0.35750484 -0.74768454 1.4997988 -0.45428547 -0.73543674 -0.39168012 0.2489904 0.17468609 0.29262462 0.76978827 0.8882098 0.10269772 -0.100659944 1.058264 0.7940611 1.2392969 0.40257034 0.9680158 -1.8002561
só 0.49788088 0.16582757 0.788809 0.29126558 0.37080935 -0.8780226 0.38470048 0.48640665 -0.4533205 0.07519999 -0.33422014 -0.99520785 0.9256084 0.42367113 0.8167439 -0.013751618 -0.6515412 0.6417353 -0.4146696 -0.16864838 0.16550203 -0.24585944 0.014981987 -0.36307117 -0.11140733 0.7097883 -0.31351447 0.14377856 0.24791832 -0.45275173 0.16642877 0.5794746 0.25163716 -0.258609 0.23454936 0.823547 0.85587674 -0.04634615 0.124838576 0.61020416 0.6191054 0.061487194 -0.26274264 -0.08084116 0.26564384 0.13150385 0.23240729 -0.95281035 0.5522526 -0.049353477 -0.24383706 -0.75031596 0.30321 0.10683927 -0.43401164 0.56267005 -0.19740818 0.21166687 -0.70204484 0.24661657 0.24021901 0.34890053 -0.89221746 0.40955868 0.3791659 0.31220242 0.28881252 0.17026138 -0.69899064 0.69334346 -0.8942408 -0.11590985 0.5085511 -0.116773255 0.357351 0.37879676 -0.17047676 -0.3224224 -0.16084021 0.14046237 -0.49559566 -0.19966285 -1.1411883 0.23466337 -0.00065381476 -0.20523095 0.43737963 -0.13695043 -0.18037525 -0.5146344 0.2987724 0.14686123 0.36050746 0.1981885 0.48944318 -0.35925648 0.833327 -0.041223817 0.13434923 -0.8540616
porta -0.6186449 2.0082376 -2.0738401 -0.0047317757 0.35929236 0.87480944 -0.37136275 0.12811872 -2.411664 -0.7429773 0.23787424 -0.35570133 -1.3507104 0.74563634 -0.8928627 -1.0346695 0.43548742 0.16613099 -0.23523004 0.4422094 -0.8735151 0.2745663 2.6470015 -0.28204772 -1.2363689 -2.005397 1.1390007 -1.4157674 -2.1886125 0.60570306 1.1661162 -1.3849467 0.92001206 1.016254 -0.012308293 -1.1542751 -0.92599034 0.82637197 -0.7379895 -0.67965484 0.5100797 -0.8484075 0.72003657 -0.5704784 -0.5637826 -0.55142826 -0.3971863 -1.4693187 0.31673545 -0.354374 -0.9513043 0.0002894756 -0.15832609 0.51977265 -0.031012785 0.08585495 0.012481416 -1.2547988 -1.0152899 -0.12798701 1.8455336 0.2807646 1.5599865 -0.6666292 -0.63020164 0.6989604 1.9428226 -0.88075477 -0.82144165 1.2260684 0.8027393 -0.23723426 -1.0851284 0.2440643 0.6011015 0.35833347 -0.099687405 0.853594 -1.1429064 0.7219071 -0.5289625 0.9124236 0.10724863 0.6855027 -1.6111073 -0.9785083 0.19073552 1.8453453 1.3926797 0.5618577 -0.6089755 0.94167626 -0.31920627 0.34196886 -0.5761662 0.5951711 0.41078222 -0.26007533 -0.26460063 0.82040966
lo -0.16543725 0.40326238 -1.13059 1.0232537 -0.786875 -1.140653 0.87251824 0.62312055 -1.0010014 -0.19201562 0.23362072 -0.7435682 1.7845528 -0.36423528 -0.1873924 -0.4127483 0.06927384 0.3802091 0.45118508 -0.15491953 1.0179912 -0.850434 -0.16163921 -0.5797768 0.567184 -0.15859002 -0.8855615 -0.02252391 -2.0219548 0.17934863 0.07985407 0.12186372 -0.89223284 -0.15406455 0.83872205 0.9290126 0.26857862 -0.07307213 0.116054475 0.17284684 0.871926 -1.3056787 0.08511168 -0.47378892 0.00078619557 -0.6181302 0.026413523 -0.7939952 0.26706523 -0.31094763 0.30520648 -0.74655044 -0.00011904181 -0.38451454 -0.5976903 1.766537 0.042327333 -0.069461174 -0.96871823 1.2899128 1.1689987 0.20981999 0.5672907 0.016312703 -0.089400455 0.86997676 -1.8799694 0.0062726736 0.3366812 -0.30143678 -1.1529508 -0.74847716 0.1546399 -0.27553573 -0.027185995 -0.48363763 -1.347986 -0.4329169 -0.27288952 -1.1026404 -0.23030429 0.19221193 -1.6613889 0.09622891 -0.8339704 -0.56868047 0.41343677 0.8778446 0.832705 -0.65225077 -0.43924078 -0.2458575 -0.2715218 1.1678323 -0.12971844 0.3987978 1.564454 -0.45898154 -0.12560213 -1.7264633
agora 0.1129311 0.23576254 0.33866948 0.26707688 0.037719015 -0.3841909 -0.03701103 0.42784858 0.065286875 0.06146622 -0.31795195 -0.22318858 0.5609081 -0.20919123 -0.11517435 0.4186298 -0.67228156 0.14186837 -0.2111338 -0.008407655 -0.25361004 -0.048217047 -0.095499605 -0.00946824 -0.37830672 0.012806715 -0.6876244 -0.20175584 -0.5184908 0.26334226 -0.16177014 0.4145271 -0.6169113 0.0077344277 0.08805645 0.46103904 -0.05026941 -0.27790934 0.2893876 -0.11675031 0.48781738 -0.591319 -0.040057804 0.20492493 0.63426346 0.34833154 0.29480568 -0.41127884 0.39379972 0.2624147 0.1955051 -0.88044816 0.26312682 -0.12767912 -0.67185014 0.3267154 0.51564497 0.49741262 -1.05013 0.046492655 0.36146554 0.03171356 0.015650002 -0.18669558 -0.31064484 0.35134205 0.062593 0.33057818 0.03716107 0.4403678 -0.22673385 -0.24002789 0.5116176 0.31760925 0.51603615 0.19601288 -0.5644443 -0.09809452 -0.089554675 0.25797695 -0.17372042 0.26721117 -0.557869 -0.072087444 0.053378247 -0.27743354 0.14509259 0.23315093 0.4140617 0.1575825 0.6830887 0.13429265 0.060896393 0.11337287 0.55221707 -0.03045285 0.2539281 -0.14531404 -0.8521398 -0.44539398
snape -0.08020993 1.4227992 0.2913394 1.4674286 1.1997379 -0.753774 -0.2134397 0.27561727 -0.31898385 -0.8045129 -0.11408706 -0.33999452 0.20402262 0.54438126 0.19675629 -0.12967657 -0.762093 -0.084498525 0.056317937 -0.050932314 -0.2409738 0.1333468 0.10502583 0.585076 0.12302151 -0.31896314 -0.07835891 -0.12122022 -0.8690614 0.107276216 0.7270595 0.39741418 -0.18372622 -0.5371595 0.14473717 0.057536304 0.1668899 0.7055133 -0.13076887 0.29352027 0.39520085 0.59744966 -0.8917387 -0.46319392 -0.6879625 -0.20326348 -0.39360005 0.16003378 0.23767067 -0.12196021 -0.36621448 -0.37689385 -0.3675768 0.56823415 -0.3431053 1.4426279 0.5937562 -0.6419428 -0.5804218 0.41119522 0.5058849 -0.04360252 0.41133323 -0.3086064 -0.46264154 0.100002944 -0.12710284 0.056891367 -0.59760183 0.6252224 0.54602087 0.399998 -0.08668102 0.32188448 0.22117294 0.07758388 -0.28831455 -0.28865626 0.49346182 -0.32851437 -0.12070407 0.2950617 -0.2937924 -0.37888446 -1.4995033 -0.17423968 -0.13755468 1.9626476 1.0950898 0.48294494 -0.17854308 -0.00048108492 0.27783176 0.14216222 0.4762051 0.18581626 0.4721331 -0.52318484 0.89795345 -0.36398587
já 0.57411873 -0.24745093 0.532028 0.537593 -0.042029705 -0.36214262 -0.19275779 0.44999444 -0.71142256 -0.13516681 -0.8390967 -0.3630852 0.46321622 0.4828994 0.32261598 1.1907569 0.22549538 0.09313396 0.21650562 0.26486418 -0.33344075 0.3778966 0.026928805 -0.16217397 -0.362505 1.0528471 -0.9930212 0.12239075 0.2117742 0.2656349 -0.2435006 -0.24051929 -0.24634616 -0.7784496 0.24689181 0.99856305 0.14319366 -0.014856973 0.49421173 0.6657286 0.61688 -0.24239743 -0.52708 0.6631849 1.0565498 0.9026401 0.09470611 -0.22242272 0.53462654 -0.77880037 0.43144158 -0.6234358 0.15165624 0.25220066 -0.41142023 0.548473 0.44891438 0.7651159 -0.9626537 -0.18522461 0.09197396 0.16268344 -1.0225353 0.4930428 0.057305764 0.5633868 0.085241914 -0.015453543 -0.21462126 1.0725455 -0.30583903 -0.18900156 0.8950965 -0.60826737 0.49989668 -0.082046375 -0.63499254 0.035622466 1.0715853 0.27661404 -0.96634126 -0.26113182 -0.5333327 -0.007423438 0.39709184 -0.19034913 0.77050394 0.3917695 -0.016292019 -0.4143176 0.38382033 -0.16640319 0.10083308 0.16229078 0.103469975 -0.40587246 -0.012482311 -0.08076921 -0.32830456 -0.0033642019
parecia -0.46463647 -0.26975286 0.98158926 0.093790345 0.21763721 0.7860227 0.48547208 -1.7088009 0.4783525 -0.18752518 0.10530726 -0.6084832 -0.32442066 0.3536504 -0.87945646 -0.782642 0.4944584 -1.2872176 -0.028237103 -0.77828723 1.9385605 1.0947832 0.29005674 -0.39284754 0.2728497 -0.74884474 0.08924352 0.08101678 0.3937602 -0.6512597 1.313213 -1.0527999 2.0516868 -0.50424767 -0.61398244 -0.732307 -0.014357864 -0.9024658 -0.03874189 -0.81085664 -0.057032254 0.631088 0.36437964 1.2359536 -0.030183272 0.058606718 0.13309869 0.24510607 0.2260095 0.4373033 -0.028979603 0.06631058 0.20616528 -0.5917271 0.45170695 0.8672297 -0.092412435 -0.9315775 -1.4161242 -0.71525264 -1.5370233 1.7946744 -0.9307969 -1.1541669 0.31378314 0.7696326 0.37882376 0.27021015 -0.17560595 -0.079872586 -0.5004498 0.28732133 0.7260321 -1.1396083 0.75820374 0.093754426 0.5955552 0.3667979 0.7358542 -0.49025446 -0.6730664 -0.26142174 0.008837097 1.2892671 0.12741749 0.11363561 -0.009793824 -0.09014281 0.9910765 0.98226136 1.1451739 0.69307745 0.14667143 -1.4510373 -0.058968436 -0.3924001 -0.31316844 0.37894702 1.1890506 1.2183217
weasley -0.31045896 -0.43672425 -0.73182756 -1.1323913 0.3864227 -0.07053801 -0.13834175 -0.41443476 -1.1358188 -0.26493067 -1.779586 0.58705527 -0.9242945 -0.7269803 0.780263 1.0853407 -0.0104952315 0.7500733 -1.4599298 -0.19183905 -1.2227178 1.7974029 -0.2698426 0.26295412 -0.56974745 0.6915843 0.33434278 1.0131598 -0.8690733 2.1640887 0.37953767 0.82519865 -2.3299224 -0.21262562 -0.580306 0.3095956 -0.02010856 -0.4467847 -0.60593617 -0.52899367 -0.83055884 -0.909313 0.48928273 -0.6560716 1.4077693 1.6455926 0.1551779 0.9590304 -0.92362326 -0.7968852 0.41509613 -1.0319936 0.1621471 0.5150864 -0.9950217 -0.45589685 -0.063103326 0.36583784 -0.89392257 0.78182685 0.61996096 -0.66897905 -0.3110584 0.16207746 0.6863224 0.8771649 2.2518883 1.6497674 -0.34818363 0.17170681 2.07887 1.101414 1.8704187 1.4125253 -0.5999819 1.4429973 -1.5257053 1.2652993 0.26717785 -0.9519683 -0.058685146 0.9121095 0.42362744 1.1369592 0.6494896 0.43867278 1.0417173 -0.10826229 -0.6935678 0.24362472 1.5001328 0.9817688 -0.95483977 -0.91083336 0.13372323 1.1315359 -0.2571068 -1.814273 0.7980023 1.2628036
pelo -0.9529845 1.5675446 -0.08198687 1.1766034 -0.7428104 0.16650158 0.95506793 0.31765914 -0.36657256 -0.20382427 -0.20738126 1.1175982 -1.8034337 -0.32250714 -0.03704561 0.76551473 1.8679837 -0.99628085 -0.9190956 -1.0070505 -0.8188623 1.1445988 0.66690964 0.58172965 0.4961032 -1.2087494 -1.1287266 -1.3327932 -0.07349749 1.1418701 1.5135939 -1.0134076 1.1993604 0.3424954 -0.44624627 0.28183576 -1.6850805 -1.3399606 0.78679055 -0.15085667 0.29888865 -0.49466777 0.89157593 0.59520465 0.5970478 -0.7468665 -0.59420925 0.1174503 0.23551613 0.12366889 0.070464715 1.0845947 -2.075548 -0.79011434 -0.85663414 1.1800016 0.6989714 0.15201055 0.8246264 0.11770241 -0.28914246 0.2983522 0.7417649 0.28152865 -0.03312635 -0.5212349 -0.01270974 0.18563728 -0.012122352 -0.3400278 0.8141971 -0.0048873224 -1.159601 -0.09539405 1.0104172 -0.66284496 0.30109063 -0.19763911 0.5730482 -0.20672776 0.23132832 -0.28326696 1.9538825 0.42365807 0.70257366 -0.11953595 0.39251354 0.7730496 0.4456453 0.6898575 0.07879693 0.057524674 -0.67367274 0.13522162 -0.025164474 -1.0046558 0.19694552 -0.73891395 -0.31460112 2.047499
dois -0.2164297 -0.088728115 -0.17440416 0.4157865 -0.12235135 -0.08751987 0.28444716 1.8663431 0.4713856 -0.18122178 -0.642495 -0.01722497 -1.4282619 -0.5925733 0.18366407 -0.79226923 -0.34796324 -0.5612038 -0.26943883 0.20931078 -0.22800979 0.5452669 1.1540331 -0.7499786 -0.3600609 0.37544936 0.7326805 -0.08638842 -0.30801266 0.35229456 0.18747263 0.04705999 0.2383579 -0.04379179 -1.138907 0.24908252 -0.28565308 -0.84061664 0.29540896 0.05762197 0.22524531 -0.16854791 -0.67238975 -0.28317267 1.0191978 0.85187167 0.6471612 -0.0869152 0.527166 -0.40933853 -0.2213086 -0.55895674 -0.2740908 0.6500545 -1.0340893 -1.4581227 1.0764678 0.06493562 0.002950777 0.16699159 0.09198734 -0.3707631 0.68928075 -0.65206456 -0.7382118 0.38553375 0.26974607 0.56680995 -0.08401596 1.5541028 -0.08074755 -0.9542384 -0.09286392 0.74317545 -1.1246275 -0.007154838 -0.24251592 -0.39180255 -0.49479657 0.72913915 -0.2175192 0.2572435 -0.52425784 0.23535094 1.6945826 -0.49188143 0.16647933 -0.28506893 -0.48851696 0.94162685 0.58869714 -0.6753877 -0.42948353 -0.36473233 1.1495718 0.99653244 -0.1161019 -1.6836447 -0.95798457 -0.4062333
fazer 0.38605395 0.5776789 0.293153 0.0072761485 0.28933278 -0.10441573 0.4894433 -0.22825216 -0.39158532 0.08561207 -0.22407034 -0.5616272 2.0739594 0.17727578 0.2212763 -0.5381678 -0.8473442 0.2875918 0.12361702 -1.0054634 1.0842667 -0.7712167 -0.3905448 -0.28022063 -0.47566986 0.35285494 0.13867053 0.75689924 -0.20635663 -0.59118235 -0.48603937 0.98164165 0.5778126 0.32389763 1.4005233 1.0007198 0.89306134 -0.3246645 0.49075124 -0.1931712 0.142049 -0.67010385 -0.3911424 -0.23454061 -0.26251402 -0.2574115 0.34819943 -0.3923315 0.3201712 0.054428495 0.6512579 -0.9542096 -0.062310345 0.27278668 0.542585 2.0905528 -0.33490372 -0.3585916 -0.6599841 -0.06561421 1.0474343 0.68890035 -0.6518044 0.007179729 -0.66710997 0.97495353 0.18854173 0.33242065 -0.2255626 0.68956983 -1.5161711 -0.20511448 0.72847646 0.53606176 -0.08739042 0.142819 -0.5508218 -0.707019 -0.31092152 -0.6816849 0.13196576 0.9159325 -0.89263105 0.54318523 -0.321021 0.25047618 0.59868526 -0.2790552 0.87930995 -0.08470966 1.1376551 0.12928922 -0.25780937 0.26820144 1.3797238 0.9092015 0.38215563 0.49281415 0.45501256 -1.6573805
potter 0.48815206 -0.6067827 -0.31225842 -0.2908053 0.33851072 -1.5160704 0.7726489 0.5725462 -0.43345663 0.14891352 -0.23912959 -0.633982 0.92920053 -0.012830089 1.8044788 1.0685701 0.7449473 1.0908465 0.7318818 0.28455526 0.5583516 1.0771655 -0.81652075 0.13789818 -0.0878473 0.3892603 -0.20203085 0.223066 0.47750568 0.9854665 0.085259 0.2724361 -1.9775146 -0.48966327 -0.3697166 0.8753373 0.43926793 0.24028488 -0.15628336 0.008272097 0.699527 0.2543353 -0.25240785 -0.47341353 0.9955692 0.600091 0.26907614 0.32909003 -0.1768185 -1.433532 0.1712138 -0.8703442 0.5766921 -0.49821165 -0.46187332 0.7487081 -0.38379765 0.659566 -0.20885216 1.2072059 0.15517409 -0.1741957 -0.6819392 0.7658837 0.6375378 0.4628885 1.0478513 1.1397581 0.08157073 0.62123746 -0.34067726 -0.62870365 1.2520306 0.39879233 -0.6279905 1.705936 -0.44155478 -0.013404015 -0.41448045 -1.5413295 -0.77229327 -0.10764584 -1.3586723 1.053406 -0.2835834 0.91500753 1.3251122 -1.104383 -0.20276341 -0.41251612 1.3702897 -0.119033575 -1.1544051 0.5767351 0.81416184 0.21029897 0.54036534 -0.49225065 -0.106359586 0.054274034
vocês 0.7443407 0.11390246 0.5332722 0.32718414 0.84607065 -1.674498 0.7113231 1.6902109 1.00292 -0.22156094 -1.1448275 -0.9808606 -0.79826033 -1.1082103 0.8219825 -0.7031034 -1.5217307 -0.2058658 0.5992663 0.3050853 -0.5030952 0.99524516 -0.10020798 0.7740045 0.06482339 1.2390898 -0.16934416 -0.23066126 -0.5193252 -0.048612945 -0.77802515 0.30001608 -0.9076055 -1.2166822 -0.57967234 1.251593 0.25606972 0.08927391 0.49932438 -0.10709663 0.20851219 -0.93104213 -0.8250104 0.114234015 1.7015413 0.08501622 1.3474576 -0.565118 2.500315 0.109513946 0.4063084 -1.3503107 0.5460625 0.78220826 -0.36388668 0.58630496 1.3703817 0.31737137 -0.6314283 0.09106274 0.045348283 -1.0136832 -0.28442565 -0.73003787 -0.64397806 -0.019800372 -0.38782957 0.0010751195 0.5235342 1.5441916 -0.57185507 0.11339777 0.45070013 0.7195759 -0.33404404 0.44323394 -1.8429615 0.7001314 -1.1538014 0.55456793 -0.017273733 0.4978413 -0.5879359 0.24931772 0.23828815 -0.48033044 -0.69831383 0.44268274 0.7558321 0.15488227 0.46846992 -1.0886084 0.045990117 0.1792782 1.0799586 0.35994524 0.2516343 -0.572475 -1.640287 -1.6894675
nada -1.1827098 0.17388786 0.5280565 0.22164275 -0.19607216 -1.4331344 -0.20420456 0.43470812 0.37164515 -0.85402113 0.65245503 -0.16613267 0.9505183 0.501504 0.85471946 -0.29875892 0.67799884 0.054044627 0.22033814 0.44568607 1.5297601 0.6060189 0.2540685 -1.025572 -0.5106008 0.5543748 -0.39580202 0.47169513 0.28866133 -0.27634493 0.38860285 -0.2317597 0.26519513 -0.09253349 0.4661619 1.4359692 0.21862748 0.7591616 0.3239804 -0.0663205 0.44798085 -0.8717809 -0.785747 -0.8215213 -0.1519761 -0.2163222 0.9804458 -0.95908415 -0.06546245 -0.9560892 -0.66186905 -0.46251974 0.47586206 0.4952324 0.11469903 1.1775914 -0.3081935 -0.13291427 -1.3113525 -0.11626162 0.6975611 -0.63240665 0.41601348 -0.63933915 0.04261173 0.8792011 -0.16456172 -0.13268797 0.43873572 1.538455 0.39618954 -0.43166405 0.9849172 1.0247173 0.36743364 1.2243247 -1.287632 -0.68605787 1.0246278 -0.20497976 -0.39971238 0.014756202 -0.40119746 0.81761456 -0.13368249 -0.6364098 -0.14148599 -0.16823433 1.546403 0.3487517 0.3267345 -0.7945584 -0.43795016 -0.96059984 -0.29260933 0.27152196 0.9989318 -0.68541324 0.019766914 -1.0342417
voz -1.4167159 0.40909418 0.1172119 -1.509607 1.0185764 -1.0972409 -0.049944505 1.0021336 -1.252425 -0.39215693 -0.43812642 -1.0098786 -0.47104698 1.230432 1.012515 -0.6518475 0.0011657047 1.2240727 1.8920474 0.8551003 -0.0024812869 0.3542797 0.4211392 0.33039144 -2.3553576 -0.18858832 0.57098633 -0.018344011 -0.8843207 -0.23323235 0.3957773 -1.3507452 -1.7070489 -0.2840273 0.25271937 -1.0004817 1.069154 2.3693097 -0.84307075 -0.8940279 -0.04607424 -0.31239665 -1.2861058 -0.8727047 -0.3751029 0.2378756 0.28090984 -0.31554204 1.626664 -0.49369916 -0.59544635 1.5126525 1.4790707 -0.22909726 1.0818279 -0.033335812 0.49391326 0.0023086097 -0.36870244 -0.7550621 0.7087888 -0.84932935 1.2105316 -0.6048968 -0.9083799 0.07757032 0.61033255 -0.8281446 -0.21578485 1.1529961 0.12849995 -0.36694342 0.51630116 1.6705996 0.30594394 2.277538 -0.2682224 0.76677644 -1.5193111 -0.10905441 -0.5172127 0.894347 -0.16571806 0.83065116 -2.1000462 -0.35478255 1.1223955 2.4295642 1.1185951 0.33453867 0.47322497 0.27092886 0.6228595 1.3883778 1.95937 0.92614543 -0.52114564 1.4481815 0.5770828 -0.62854993
lockhart -0.54272664 0.5894567 0.0028979334 0.20489696 0.8628261 -1.0005591 -0.068240814 1.315604 0.7389609 0.07284708 0.3390837 0.009722087 -0.76144785 0.18302545 0.99878424 0.08110825 -0.30059886 0.4864127 -0.23222862 -0.14725247 -1.380932 0.63121945 -0.114574835 0.2548708 0.2461442 -0.38854253 0.7220127 -0.1442605 -0.77471834 0.098360516 0.88211143 -0.019180207 -0.5053213 -0.26596946 -0.5904679 0.048876476 0.6678062 1.0657312 -0.15101695 0.14218932 0.2925304 0.34357184 -0.83062446 -1.0789567 -0.4254879 -0.26079524 -0.18698078 0.40195557 -0.0045518517 -0.052121807 -0.55163455 -0.29525408 -0.34680954 0.737494 -0.8253891 0.11196653 0.9970123 -0.32241756 -0.35421705 0.019885486 0.5759447 -1.135355 0.8685524 -0.39141122 -0.15282625 0.1929282 0.44877788 -0.11817781 -0.6553678 0.44715232 0.79364353 0.12946017 -0.6298846 0.5504167 -0.1842926 1.7721006 -0.0880545 -0.0771947 -0.30169305 0.761994 0.29880255 0.4788615 -0.5231598 -0.17141284 -1.3676996 -0.80824566 0.15019116 1.280293 0.03184834 0.9552521 0.6370998 -0.0853898 0.61281693 0.80231106 1.234391 1.1382403 0.19583686 0.18604514 -0.011214125 -0.36641702
dizer 0.38722354 0.33672228 0.7997221 0.26233128 0.9336858 -1.2969726 0.8060728 0.17535383 -0.1646048 -0.94251895 -0.8448698 -0.49877635 1.7223477 0.12365566 0.90686834 -0.17853098 -0.25972486 0.8071623 0.4234666 0.044419523 0.8414087 -0.5514425 -0.17241004 -1.1807741 -1.2062441 1.3807112 -0.28755116 0.36549494 -0.2801921 0.5414599 0.41692653 0.8846102 -0.34289455 -0.10676066 1.1547985 1.0086447 0.71819586 0.42706063 0.27748695 0.86156434 0.7462074 -1.0554327 -0.45919037 -0.42974672 1.0539002 0.23383944 0.16346158 -0.8417171 0.60537034 -1.9064701 0.475015 -0.85928935 0.9338541 0.9829824 0.049760483 1.9478546 -0.45615572 0.22985208 -0.54788727 0.6770669 1.2447791 0.15441051 -0.6302103 -0.062028214 0.79077625 0.74817944 0.7791609 -0.3691153 0.2741613 0.85363513 -0.9389252 -0.96372825 1.2589457 0.14374708 -0.23440719 0.32199007 -1.098928 -0.4623233 0.00416104 -0.9441525 -1.1991993 1.0505441 -0.92291665 1.1186632 -0.80407387 -0.23043093 1.0795615 0.7461358 0.7729821 -0.67932767 1.1712112 0.13372043 -0.8628187 -0.34303203 1.407482 0.71598774 0.90557736 -0.4291481 -0.103608385 -1.4502835
depois 0.50024354 0.39046046 0.046475478 -0.010875056 -0.7574483 0.7794223 0.5019581 0.2420081 -0.020652117 -0.028753541 -0.27438912 -0.31985015 -0.2030261 -0.26508087 -1.0816258 -0.27091262 -0.7186338 -0.40555024 -0.18792641 -0.86192024 -0.57314765 0.7931973 1.3631396 0.26757997 -0.46734077 -0.39598152 0.51972127 -0.5629929 -0.11902818 -0.14880358 0.9380254 0.1567808 0.5675315 0.47224176 -0.2533825 0.05443258 0.07960755 -0.92506075 0.46437007 -0.43044078 0.25444704 -0.065437436 0.20685197 -0.692544 0.19276568 0.41542011 0.023268024 0.2996394 0.81347555 -0.2509878 0.943366 0.5546252 -0.42251512 0.039591856 -0.28031874 -0.058197726 0.59168035 -0.073802546 -0.8531128 -0.083016545 0.13342845 0.002100812 0.3100292 0.44894016 -0.17176273 -0.068488106 -0.17415182 -0.156657 -0.6798045 0.95227396 -0.19612797 -0.29910013 -0.32711896 -0.49413773 0.34440595 -0.14012076 -0.25968674 -0.4472816 0.44304362 0.44998592 -0.29357472 -0.15666752 -0.39655933 0.22299372 0.094563186 -0.245848 -0.24674316 0.27557907 0.08715591 0.5631935 0.7592059 -0.39976496 0.83514756 -0.283057 0.3445152 -0.37648246 -0.15365277 -0.33099905 0.10186293 -0.29648072
todos 0.4974539 -0.36162904 -0.08099603 1.0600708 0.29227903 0.4393866 -0.36989665 1.5745745 0.11652373 -0.3080256 -1.1903124 -0.1349258 -0.9408184 0.38347492 0.10496309 -0.2847656 -0.808948 -0.4477833 0.019050717 0.92467797 -0.40654424 -0.030239405 0.9267324 -0.5639511 0.5486625 0.33765632 -0.23423375 -0.102911286 -0.8188456 -0.5801834 -0.24333806 0.13659902 -0.16632971 -0.37504128 -0.1319991 0.5575463 0.16871083 -0.43407732 -0.018073894 -0.013687379 -0.32994092 -0.31880328 -1.0947863 -0.13379747 0.77230436 0.47066277 0.56498605 0.1975098 0.43881485 0.20769584 1.0350597 -1.0036966 0.13852288 0.7340299 -0.5137374 -0.39487007 0.14048249 0.27160248 -0.78325146 -0.20158054 -0.2654306 -0.5022195 -0.5540367 -0.85711247 -0.40341043 -0.03872052 0.09556891 0.8870567 -0.05750454 1.2417321 0.23172264 0.024393817 0.063812904 -0.123768464 -0.78820395 -0.16838013 -0.103292495 -0.31848815 -0.4134572 0.66298 -0.029227367 0.12366526 -1.0241925 0.09572721 0.46835616 -0.8671073 0.7920207 -0.52072287 -0.6050831 0.6844562 0.924248 -0.9592018 -0.048516676 0.871661 0.63936937 0.90723574 -0.3277584 -1.08018 -0.6203214 -0.6200169
vamos 0.24215434 0.27949065 0.16747858 -1.3507192 0.9086256 -0.47233292 1.3871647 0.9987435 -0.26065016 0.08197339 -0.669396 -0.8037973 0.15328306 -0.47460002 1.6090503 -1.5802184 -1.1164398 0.29049614 -0.20866564 -0.5032273 -0.21563123 0.7797111 -0.8032804 0.82172096 0.041411117 -0.027025076 0.11203611 -1.4292513 -0.7470342 -1.1590853 -0.54980034 -0.68959785 -0.98635197 -0.5743055 0.360445 0.24428858 0.21504208 -0.37995008 1.2090077 -0.76238483 -0.12167817 -1.1109855 -0.114303894 0.40687725 1.2018429 0.0250615 -0.24710844 -0.4420329 1.0116512 0.8332681 -1.0252203 -0.9906497 -0.06302391 -0.9859828 0.6041971 0.56580174 -0.22017726 0.5198643 -0.74795926 -0.28110966 -0.8178318 0.3081135 -0.35359457 -0.8988965 -0.18490726 0.42574975 0.27199766 -0.046219323 -0.057372537 0.11940629 -1.5677108 0.71393985 0.7720083 -0.24817553 0.41057166 -0.19364561 -0.82909226 0.39091516 -1.2838196 0.33927146 0.24070145 0.34947348 -0.25464532 0.8742248 0.918981 0.73829997 -0.52205 -0.40250543 0.4994304 0.046421688 0.6724407 0.4630807 0.59767854 0.29222947 0.5904007 0.59979504 1.3828324 -0.45248124 0.7498166 -1.9655877
nunca -0.15244438 -0.7521855 1.124336 0.70825636 0.0048336126 -0.56799734 0.8450198 0.2065798 -0.25706652 -0.9361075 -0.25322232 -0.4873993 1.1327304 0.8222341 0.279288 0.25758836 0.4406406 0.6108558 0.94201523 0.39314082 1.8023661 -0.12801425 0.025999563 -0.311537 -0.3063471 1.0477747 -0.31162143 0.9651201 0.3591263 0.99635816 -0.61288893 -0.3215649 0.20930506 -0.99160016 0.5914754 1.0130285 0.22926919 0.8683272 0.24892378 0.6729324 0.49342772 -0.20384367 -0.29427966 0.31535807 0.372693 0.8576917 -0.22191654 -0.587713 1.02441 -0.5463488 -0.15575024 0.21157189 0.20145087 0.05763588 -0.16776481 0.74773014 -0.49688053 -0.3183581 -0.8728041 0.9601466 0.059976913 0.46146303 -0.31658345 -0.037136916 -0.27898633 0.618122 -0.16291021 1.1230533 0.024613842 1.684381 -0.51190186 0.08681287 1.064055 -0.7023188 0.6963529 -0.20057952 -0.5655333 -0.90995336 1.4574739 -0.54964244 -1.0822111 0.023090392 -1.1007376 0.6607937 0.20803583 -0.97181183 0.6630287 0.12104705 0.6543003 -0.29457998 -0.12177757 -0.22738023 -0.5598091 -0.39950585 0.52004635 -0.5384888 0.46268257 -0.58045924 0.06595438 -0.45014122
havia 0.107351184 0.57475317 0.6070038 0.8449142 -0.3461414 0.33492482 0.0870663 -0.38104886 1.2707751 -0.2848348 0.8051028 0.4462579 -0.9014447 0.3307706 -1.6938695 -0.6229434 0.43211377 -0.52824795 -0.19711952 -0.43522418 1.654845 -0.14269523 1.419233 -1.3237119 0.5428206 -0.6249985 -0.5334451 -0.45199367 0.31445482 -0.5633799 0.7311158 0.5527455 2.3442993 -0.08331716 -0.38891566 -0.32485265 -0.85687315 -1.3780644 0.4405959 -1.6547109 -0.7414502 0.0354254 0.49487394 0.19910872 -1.4039077 -0.9031632 0.38180187 -1.1337715 0.9829773 0.55828595 0.30730605 0.43394247 -0.012563111 0.3542779 0.44396353 0.94694465 0.7226851 -0.71163476 -1.5063207 -0.4095864 -0.9506754 1.2531065 0.060827978 -0.011745743 -0.18352082 1.3217661 -0.55276275 -0.2968576 -0.06247112 0.75335526 0.2206459 -0.56113946 -0.43657833 -0.27733082 0.9963506 -0.7006101 1.0074147 -0.20622328 0.5855135 0.5588796 0.30030277 0.45993942 0.26726088 -0.009508851 -0.06142859 -0.38131666 -0.056351498 0.28244883 1.6247789 1.3716449 0.70244044 -0.5089029 -0.58296484 -1.2819461 -0.12299269 -0.024599057 -0.11189334 -0.4054476 -0.43060756 1.2545476
quem 0.6554281 0.05283429 0.66948986 0.24531405 0.32192257 -2.2026367 -0.18476582 0.7378215 -1.8939835 -0.9593295 -0.27552342 -1.1634136 1.1910057 1.6968801 1.6905591 0.44405818 0.47791764 0.59150666 0.57443017 -0.3647292 0.12203976 0.07969245 -0.611091 0.019428227 0.123517625 1.5639429 -0.8398889 1.4763483 0.07097652 0.5040174 0.283511 0.46464044 -0.6023881 -1.4665703 -0.041133713 1.6622692 1.1327887 0.6878593 -1.3595021 1.0377977 0.21653543 -0.23423515 -1.3534603 -0.820413 0.24425855 0.11995291 0.16134214 -0.28238696 0.3335884 -1.0149668 0.44849002 -0.26507512 -0.25671986 1.0715654 -0.10863735 0.6355745 -0.9608918 -0.14450806 0.50169027 0.49686667 1.0643067 -1.0299475 -0.8826503 0.5546138 0.088391356 0.40185452 0.7974312 -1.1904838 -1.3257505 0.8098484 -0.32048044 -0.32789963 0.66580987 -0.33277228 0.3258162 0.7568635 -1.0855118 -0.11853584 -0.46561605 -0.18111102 -0.35864916 -0.18958323 -0.49538308 0.45319387 -0.7221314 0.27649766 0.8113155 0.40867758 0.57835287 -1.1358548 -0.22344805 -0.2315632 -0.291169 0.117238246 0.2992847 -1.0597471 -0.29669213 -0.036911096 1.0108533 -0.13562243
alguma 1.4637408 1.1187446 1.3977104 0.97997624 0.610136 -1.4127024 0.43351138 1.4125981 -1.5768075 0.117427014 0.0585829 0.8831648 2.1815503 -0.034394775 0.6235638 -1.1907866 -1.2724063 -0.23303135 -0.14091213 -1.7661211 -0.75253546 0.7107848 -0.4943979 -0.94616175 -0.280818 0.37428054 0.4740841 1.4717406 0.03863093 -1.6935301 1.2486085 0.63733464 2.5327878 -0.45521 0.060933746 1.8002326 -0.43650594 -0.33260608 -0.61533993 -0.018053355 1.4030232 0.97610676 -1.3936787 -1.4747485 -0.6331508 -1.7357703 -2.0099728 -0.1299825 0.01005904 -1.2293938 -1.2317652 -1.0490218 -1.025671 0.211753 1.2154914 0.3945452 -1.3077583 0.26177144 0.7305072 -1.0222799 0.5302724 0.33929422 0.13156366 -0.8023703 0.57048947 1.9837949 1.4919134 -2.2450252 -0.28872687 -0.6931905 -2.03282 -0.26621565 0.34358385 -0.08529984 0.9732188 0.35947534 0.35114625 -0.84171575 -0.9756208 1.4375386 1.2385684 0.57235134 -0.7444345 1.3010262 0.6339246 0.3270064 1.4142498 0.029197434 1.2191201 -1.0215696 0.9258374 1.841888 -1.3314608 0.34006932 0.46253058 -0.35052875 -0.54539514 -0.4156037 1.7932446 -0.013132392
aqui 0.6442995 0.42664602 -0.16609922 -0.17160948 0.042196296 -1.5151991 0.4698304 0.9321835 -0.8448178 0.49813855 -0.72673917 -0.90803015 0.9298764 -0.3135662 1.0094217 -0.39204973 -0.7423134 0.41784897 0.67364603 -0.08527024 -0.9176168 0.5311168 -0.7036225 0.46872622 -0.26616544 0.80875 -0.6222557 -0.4107493 -0.8453509 -0.45935345 -0.11932395 0.22348358 -1.1830497 -1.2648377 -0.115666084 0.59126407 -0.012225632 -0.10293654 0.24921705 -0.11385022 0.5597054 -0.29577988 -0.4525624 0.52213436 1.017665 -0.16109438 0.34656864 -0.37027276 1.1784983 -0.14579593 -0.18432498 -1.0219253 0.5631899 -0.10656138 0.33421728 -0.08077461 0.81459385 0.9214379 -0.79322255 -0.014850736 -0.34362644 -0.076681904 -0.8949412 0.76396394 0.5821212 0.16161405 -0.1888111 -0.755543 -0.15033187 0.58037925 -1.3083751 -0.1625411 0.7407831 0.082375675 0.37312984 0.29006168 -0.24010216 0.18621358 -1.090057 0.14192954 -0.5608739 -0.11086422 -0.9490376 0.013953209 0.43867305 0.097203985 0.39808223 0.010321154 0.07654077 -0.23783869 0.93487436 0.6373073 0.22017048 1.3789636 0.47886226 -0.3541502 0.49707747 -0.10777918 -0.08894796 -0.6897958
seus 0.15710025 -0.8088807 -0.020709068 0.52297837 -0.17908272 0.25756848 -0.344006 2.5979738 1.4799013 -0.9559246 0.7476697 0.09981206 -1.0462531 0.22941756 -0.025485821 -1.1915513 0.6192265 -1.3710675 0.0755796 -0.28700924 0.24252522 -0.7155864 0.22906663 -1.9453768 -0.5880828 -0.71923274 -0.39531404 0.3632627 -0.3256292 1.0521239 -0.053416885 -0.3366757 -0.27531216 -0.22167395 -1.5902361 -0.1277198 -0.38884765 -0.65305734 -0.21761586 -0.022897394 0.40654105 0.16150695 -0.41477975 0.44292858 0.8989964 0.5634906 1.1334215 0.8442936 0.73315847 0.4775416 0.204958 -0.20852968 1.2185223 1.0370665 -1.8461487 -1.0772481 0.6496219 0.9266196 0.5182053 -0.35500112 -0.1309061 -0.6239257 0.13890669 -0.40045738 -0.16971783 0.56321216 -0.17254928 1.7282834 -0.1705819 0.94457746 1.1047498 -0.14771554 0.27690563 0.6357008 -1.6931884 0.5698519 0.1651838 -0.711215 -0.1645606 0.020066384 0.10495849 0.1333745 -0.58812404 0.46842125 0.9269411 -0.9019082 0.82336503 -1.2991705 -0.43742225 1.3349112 1.1989022 -1.5298156 -1.652987 0.17713566 0.15533231 1.0615805 -0.732256 -1.5051179 -1.29605 0.16288708
tão -0.9150843 -0.52174115 0.081866995 0.84997725 -0.76390356 -0.70549244 -0.43734905 0.48943126 0.3074161 -0.18134376 0.33800012 -0.46025705 1.673085 0.58995956 -0.043308258 0.24490012 0.9675603 -0.32709566 0.42516044 -0.45457226 0.983244 -0.4164852 -0.8141735 -0.65041447 -0.9925568 -0.6977123 -0.2276565 1.0560961 0.83767444 1.027864 1.2236266 -0.8727107 0.30103293 -0.8144619 -0.1756643 1.1424127 -0.62804216 0.7078229 -0.3558291 1.2142391 1.360186 0.7985397 0.123247206 0.3727778 0.078294806 0.37302098 0.39805374 0.8321559 0.28369126 -0.37597692 -0.20994645 -0.41532895 0.7987901 -0.005253639 -0.28068912 0.75506425 0.119546406 -0.38337395 -0.8041098 -0.23696157 0.036795694 -0.5272707 0.08592347 0.17174955 0.07874596 0.17242913 -0.109975405 1.1408546 0.36053774 1.044083 1.0202745 0.51917756 0.7823504 0.8336961 1.1464846 1.2179058 0.64152735 -0.68638664 0.8491976 0.2969892 -1.0119933 -0.13251291 -0.14778449 0.27072325 -0.7630747 -1.8080437 0.0029984696 0.32089466 0.1528621 0.3859017 0.9205242 -0.22616498 -0.09102463 -0.46746174 -0.8057049 -0.5728479 -0.05148956 -0.00083626236 0.70496243 0.34595114
sr -0.28986752 1.0663242 1.4615986 -1.1816957 1.1339628 -0.77213144 1.4625962 0.052547447 -0.22765419 0.94128233 -0.9612646 -2.1066651 -0.60168993 -0.93399817 0.40699986 1.1561551 0.07279739 1.5665594 1.5949696 0.3705153 -0.7992866 0.3864274 0.71013904 0.51393443 0.3910443 0.7688616 1.3273182 0.75859696 1.6557839 0.7259072 -0.31961083 0.5818617 -0.5223629 0.27518544 0.39138034 -1.0804074 0.5275919 0.3014696 0.04849874 -1.8331037 -0.67993444 -0.20940237 0.25730625 -0.47514963 -0.2395022 -0.2667919 1.4527532 1.5165557 -1.1390858 -0.43630332 0.36729103 -1.5098313 3.0369027 0.45907593 -2.411154 1.1454132 1.451157 0.0904406 -0.36501315 0.9041316 1.4899043 -0.3533372 0.9370486 -0.89517426 -0.91701907 1.1244278 0.66610247 2.2678044 -0.85664433 -0.25670356 -0.2968354 1.8444399 1.7686082 0.35900423 -1.0171688 2.4904542 -0.9769649 1.5787656 -0.7649587 -0.65752983 0.211328 0.14902934 0.18915637 -0.10539781 0.6353143 0.80099297 1.0754106 0.006337963 1.3670192 1.7673315 0.91216767 -0.5701524 -1.7654215 0.34828368 1.4329975 0.3439041 -0.31326947 -0.8986777 -0.24035786 0.3696946
